<?xml version="1.0"?>
<opencv_storage>
<opencv_ml_svm>
  <format>3</format>
  <svmType>C_SVC</svmType>
  <kernel>
    <type>RBF</type>
    <gamma>5.0624999999999998e-01</gamma></kernel>
  <C>5.</C>
  <term_criteria><epsilon>1.1920928955078125e-07</epsilon>
    <iterations>1000</iterations></term_criteria>
  <var_count>144</var_count>
  <class_count>10</class_count>
  <class_labels type_id="opencv-matrix">
    <rows>10</rows>
    <cols>1</cols>
    <dt>i</dt>
    <data>
      0 1 2 3 4 5 6 7 8 9</data></class_labels>
  <sv_total>1477</sv_total>
  <support_vectors>
    <_>
      6.70479655e-01 6.70479655e-01 2.36379616e-02 0. 0. 0. 0. 0.
      3.06042105e-01 6.73914015e-01 2.87147671e-01 2.05697259e-03
      2.43077939e-03 4.90837134e-02 6.57882076e-03 0. 5.96881798e-03
      6.73914015e-01 6.35309339e-01 2.96708763e-01 8.28708336e-03
      6.19510487e-02 2.04642713e-01 1.05073430e-01 9.63045210e-02
      1.79680035e-01 6.35309339e-01 2.26709649e-01 0. 3.29881422e-02
      1.30044982e-01 1.17237374e-01 3.56823318e-02 9.41269323e-02
      6.70830905e-01 6.70830905e-01 5.46734691e-01 5.46734691e-01
      5.46734691e-01 3.12162817e-01 2.82509509e-03 6.02211512e-04
      3.29756201e-03 5.29439014e-04 1.78485215e-02 3.99624616e-01
      3.35754275e-01 6.24742918e-02 2.73950964e-01 3.99624616e-01
      3.03119868e-01 3.99624616e-01 3.99624616e-01 2.71373481e-01
      2.60825038e-01 6.75225779e-02 2.62089372e-01 4.09898102e-01
      4.09898102e-01 4.09898102e-01 4.09898102e-01 4.06256825e-01
      1.32344082e-01 5.61561696e-02 2.70807743e-01 4.38093662e-01
      4.38093662e-01 2.18266129e-01 9.12658796e-02 4.38093662e-01
      4.38093662e-01 3.08965534e-01 1.15124444e-02 2.07443178e-01
      6.87641323e-01 6.87641323e-01 6.09837063e-02 1.26248386e-04
      2.28534117e-02 5.26611181e-03 6.55915574e-05 1.03726968e-01
      1.98864602e-02 2.42417842e-01 4.22321171e-01 1.84618756e-01
      4.22321171e-01 4.22321171e-01 4.22321171e-01 4.22321171e-01
      3.85787666e-01 3.85787666e-01 7.52665102e-02 3.85787666e-01
      1.77079365e-01 3.85787666e-01 3.85787666e-01 2.57159650e-01
      3.85787666e-01 4.34786052e-01 4.38844204e-01 4.29383308e-01
      7.61394799e-02 2.79377010e-02 4.38844204e-01 4.38844204e-01
      1.93980932e-01 1.57657620e-02 0. 3.59960385e-02 5.98298788e-01
      5.98298788e-01 5.26101947e-01 0. 4.86720027e-03 7.08315754e-04 0.
      6.02339134e-02 1.62203913e-03 2.78242022e-01 6.34408355e-01
      6.34408355e-01 4.61129559e-04 8.50955024e-02 1.20176271e-01
      2.93231785e-01 4.56893057e-01 1.37102053e-01 7.37751834e-03
      4.56893057e-01 4.56893057e-01 4.56893057e-01 3.65659520e-02
      2.61672270e-02 3.73574615e-01 1.52724788e-01 1.17458910e-01 0. 0.
      2.82991469e-01 8.63364875e-01 3.58192146e-01 2.15969980e-02
      3.50802275e-03</_>
    <_>
      6.28573537e-01 6.28573537e-01 4.96835075e-02 0. 0. 4.41776931e-01
      7.55449980e-02 0. 1.31381992e-02 4.39705670e-01 4.39705670e-01 0.
      1.45556569e-01 4.39705670e-01 4.39705670e-01 8.78360569e-02
      6.42275321e-04 4.39705670e-01 3.69139165e-01 1.57095713e-03
      3.30128036e-02 4.59213108e-01 4.59213108e-01 1.20624304e-01
      2.76869221e-04 4.59213108e-01 4.59213108e-01 1.65529605e-02 0.
      4.56631333e-02 3.93682033e-01 4.98037077e-02 0. 1.08894147e-01
      6.41060352e-01 6.41060352e-01 3.60637069e-01 5.03760934e-01
      2.32842356e-01 1.32751064e-02 0. 5.03760934e-01 5.03760934e-01
      2.03828856e-01 8.74434412e-02 1.67129010e-01 2.76266813e-01 0.
      5.66592105e-02 4.98146743e-01 5.47072172e-01 5.47072172e-01
      1.73167884e-01 1.01773053e-01 4.92578372e-03 7.59811327e-02
      5.73387265e-01 5.73387265e-01 5.07909596e-01 7.52458125e-02
      6.83280814e-04 2.05882192e-01 1.57826170e-01 1.08977770e-02
      5.78690656e-02 4.85740989e-01 4.85740989e-01 2.14200430e-02 0.
      4.85740989e-01 4.85740989e-01 2.17818230e-01 4.22104858e-02
      3.63188207e-01 4.12590176e-01 4.12590176e-01 0. 1.05060600e-01
      4.12590176e-01 4.12590176e-01 4.12590176e-01 1.14679836e-01
      6.01422647e-03 6.32229671e-02 1.92193449e-01 0. 7.50866756e-02
      5.58171153e-01 5.58171153e-01 5.58171153e-01 5.60762465e-01
      5.60762465e-01 5.60762465e-01 6.15623146e-02 0. 3.87458578e-02
      9.48926434e-03 2.28024218e-02 2.12451249e-01 6.15027659e-02
      4.67475086e-01 4.67475086e-01 4.31647599e-02 0. 4.41349477e-01
      4.67475086e-01 3.73219460e-01 1.94807083e-03 0. 4.12524268e-02
      6.46773338e-01 6.46773338e-01 4.61857058e-02 0. 1.08998895e-01
      3.58990163e-01 1.11003593e-01 2.77734756e-01 7.32437009e-03
      1.88519180e-01 4.63360697e-01 4.63360697e-01 1.10682823e-01
      1.07605681e-01 4.63360697e-01 4.63360697e-01 4.55786943e-01
      4.55786943e-01 2.77506430e-02 4.51370664e-02 4.55786943e-01
      4.55786943e-01 2.57128254e-02 4.67425846e-02 3.98530900e-01
      3.03226084e-01 5.37586391e-01 8.29749182e-02 0. 1.65879607e-01
      5.37586391e-01 5.37586391e-01 3.57479118e-02 2.98359594e-03</_>
    <_>
      6.33011043e-01 4.37425703e-01 3.05441469e-02 0. 0. 0. 0. 0.
      6.33011043e-01 7.03314960e-01 6.06247261e-02 0. 0. 0. 0. 0. 0.
      7.03314960e-01 6.64958894e-01 2.88453931e-03 0. 0. 0. 0. 0.
      3.30170721e-01 6.64958894e-01 5.34898460e-01 0. 0. 0. 0. 0. 0.
      5.94954967e-01 5.94954967e-01 4.88419116e-01 4.88419116e-01
      3.56587976e-01 2.16998402e-02 3.00533623e-01 4.88419116e-01
      1.94753900e-01 8.47055390e-03 1.53345659e-01 4.95670468e-01
      9.19035971e-02 0. 5.56793623e-02 4.95670468e-01 4.95670468e-01
      2.72215102e-02 2.24223989e-03 4.95670468e-01 4.57086146e-01
      1.78189710e-01 1.43929124e-01 4.57086146e-01 4.57086146e-01
      4.12470847e-02 0. 3.24892193e-01 4.57086146e-01 1.01322547e-01
      1.59205407e-01 2.09602222e-01 3.48471850e-01 9.22621116e-02
      1.06811345e-01 5.07946134e-01 5.07946134e-01 5.07946134e-01
      2.42747292e-01 3.66005033e-01 3.66005033e-01 3.66005033e-01
      3.66005033e-01 3.66005033e-01 3.50334018e-01 1.04522727e-01
      3.66005033e-01 5.21367013e-01 5.08559905e-02 4.51949472e-03
      3.25386345e-01 5.21367013e-01 2.60851681e-01 4.93299663e-02
      1.90378092e-02 5.21367013e-01 4.54078108e-01 4.54078108e-01
      1.28577739e-01 2.14610144e-01 4.54078108e-01 4.54078108e-01
      1.19831478e-02 6.62647514e-03 3.28541338e-01 2.13020742e-01
      4.15259868e-01 1.72983170e-01 7.91813806e-02 1.68967217e-01
      5.32102525e-01 5.32102525e-01 3.75851274e-01 6.77817762e-02
      7.38573968e-02 1.91852339e-02 1.24911912e-01 6.89875901e-01
      6.89875901e-01 3.24309431e-02 0. 2.32831594e-02 1.35040119e-01
      2.08343074e-01 2.94062868e-02 2.70460011e-03 6.13738298e-01
      7.05115855e-01 1.07693575e-01 0. 1.37458148e-03 2.51435131e-01
      2.69712567e-01 7.69136846e-02 0. 2.06611842e-01 6.58979118e-01
      6.58979118e-01 2.59359810e-03 1.78703776e-04 5.96527420e-02
      4.28108275e-02 2.66238097e-02 0. 0. 6.97674453e-01 6.97674453e-01
      1.29737422e-01 1.27585903e-02 0.</_>
    <_>
      6.97529495e-01 6.97529495e-01 3.14975306e-02 0. 1.92638617e-02
      8.37293789e-02 0. 0. 1.07556425e-01 5.94729960e-01 3.19369465e-01
      0. 1.08535420e-02 3.81964833e-01 1.96576461e-01 0. 0.
      5.94729960e-01 5.08199096e-01 0. 3.61308223e-03 1.87903672e-01
      4.34658676e-01 8.02053735e-02 1.35487143e-03 4.97702837e-01
      5.08199096e-01 1.28879890e-01 0. 1.24656241e-02 1.21441916e-01
      4.07707766e-02 0. 6.46594986e-02 6.91282332e-01 6.91282332e-01
      4.80944872e-01 4.80944872e-01 3.86370361e-01 9.54790227e-03
      5.15407696e-02 4.80944872e-01 3.70467395e-01 1.06046699e-01
      2.73984708e-02 4.61716563e-01 2.45765477e-01 9.38807875e-02
      2.80214194e-02 4.61716563e-01 4.61716563e-01 6.90230727e-02
      2.60568291e-01 4.61716563e-01 2.07557723e-01 5.59045188e-02
      3.59128922e-01 4.79723752e-01 4.79723752e-01 1.76997393e-01
      1.06897540e-02 3.13340962e-01 4.79723752e-01 5.56025468e-03
      8.69199932e-02 4.78048325e-01 4.78048325e-01 3.94384488e-02
      2.07943469e-02 4.17314768e-01 4.78048325e-01 3.54837030e-01
      1.41972512e-01 3.70798469e-01 3.70798469e-01 3.70798469e-01
      3.15821350e-01 2.32845798e-01 3.70798469e-01 3.70798469e-01
      3.67044210e-01 3.42155010e-01 3.14670414e-01 3.55941296e-01
      3.55941296e-01 3.55941296e-01 3.48296523e-01 1.59920841e-01
      3.55941296e-01 3.55941296e-01 4.09895331e-01 4.09895331e-01
      2.15681285e-01 4.09895331e-01 3.81127954e-01 1.96760267e-01
      1.00582736e-02 3.05377990e-01 4.09895331e-01 2.45893955e-01
      4.30056721e-01 4.30056721e-01 9.29193944e-02 1.16892017e-01
      4.30056721e-01 4.30056721e-01 4.07383025e-01 8.47723857e-02
      2.94195451e-02 5.56130195e-03 2.09278598e-01 6.79818332e-01
      6.79818332e-01 7.90982023e-02 2.84969918e-02 8.27580243e-02
      1.01468690e-01 3.77824716e-02 6.04057871e-03 2.89247129e-02
      5.65619290e-01 5.65619290e-01 5.65619290e-01 9.54152197e-02
      7.74206519e-02 1.31063581e-01 1.21606283e-01 3.90103310e-02
      2.59891339e-03 5.35280287e-01 5.35280287e-01 5.35280287e-01
      2.33562780e-03 2.32036803e-02 3.43829721e-01 1.02198131e-01
      1.09608293e-01 7.38034956e-03 1.74149573e-02 5.96691549e-01
      5.96691549e-01 5.06971657e-01 4.91726631e-03 4.58238386e-02</_>
    <_>
      5.50444365e-01 5.50444365e-01 5.50444365e-01 5.89775015e-03
      3.48291881e-02 1.73125818e-01 1.25523418e-01 1.41629890e-01
      1.36016637e-01 4.82406765e-01 1.98966295e-01 1.44751277e-02
      6.64979964e-02 4.82406765e-01 4.82406765e-01 1.14616282e-01
      8.34301487e-02 4.82406765e-01 4.76780385e-01 0. 2.69214921e-02
      4.76780385e-01 4.76780385e-01 1.11437187e-01 0. 2.69845784e-01
      4.76780385e-01 5.57479784e-02 0. 7.70169348e-02 5.69434583e-01
      9.98221636e-02 2.27693794e-03 5.03746755e-02 5.69434583e-01
      5.69434583e-01 1.37405589e-01 4.81400728e-01 4.81400728e-01
      3.08203455e-02 1.25048995e-01 4.81400728e-01 3.84302199e-01
      3.41754615e-01 0. 1.00279234e-01 1.12092346e-01 1.70831680e-01
      3.40184942e-02 4.85306412e-01 4.85306412e-01 4.85306412e-01
      4.85306412e-01 1.01049785e-02 7.70820584e-03 6.37135804e-02
      5.57374656e-01 5.57374656e-01 5.57374656e-01 1.76039606e-01
      6.00036681e-02 9.26975831e-02 1.23014510e-01 4.67836158e-03
      1.03201203e-01 4.84664291e-01 4.84664291e-01 3.32011096e-02
      7.64813332e-04 4.84664291e-01 4.84664291e-01 2.09250942e-01
      2.22386401e-02 4.17756766e-01 4.17756766e-01 2.71263063e-01
      5.94173260e-02 4.17756766e-01 4.17756766e-01 4.17756766e-01
      2.13575721e-01 3.09520632e-01 4.78550270e-02 3.26619484e-02
      4.45735939e-02 2.01194331e-01 4.61995572e-01 4.61995572e-01
      4.61995572e-01 4.61995572e-01 6.46972954e-01 6.46972954e-01
      2.63646096e-01 1.54592060e-02 2.42806645e-03 4.82257381e-02
      1.83633231e-02 1.13451406e-02 2.89563656e-01 3.89955461e-01
      4.43510532e-01 4.43510532e-01 2.58347355e-02 2.73972796e-03
      4.43510532e-01 4.43510532e-01 2.36685336e-01 1.82386849e-03
      2.94715236e-03 6.37200102e-02 4.89152491e-01 4.89152491e-01
      4.36002731e-01 0. 5.17978892e-02 4.58719790e-01 3.30605537e-01
      4.52084035e-01 2.42224205e-02 5.99924056e-03 4.52084035e-01
      4.52084035e-01 7.80983195e-02 8.23082589e-03 4.13732409e-01
      4.52084035e-01 4.89429146e-01 4.25018430e-01 7.02404650e-03
      3.77144180e-02 4.89429146e-01 4.89429146e-01 0. 6.80304458e-03
      3.07132691e-01 3.66217315e-01 4.45625365e-01 4.11137054e-03 0.
      4.07221884e-01 5.49256921e-01 4.40259397e-01 2.14357860e-02
      7.25249934e-04</_>
    <_>
      5.69698274e-01 5.69698274e-01 5.69698274e-01 3.21698152e-02
      3.41850668e-02 9.38961431e-02 3.06360051e-02 1.33498386e-02
      9.22285542e-02 4.49878544e-01 4.49878544e-01 1.78456843e-01
      9.06778648e-02 3.87415916e-01 4.49878544e-01 1.35731637e-01
      1.88152138e-02 4.23552483e-01 3.15082788e-01 3.37529927e-02
      1.01001121e-01 4.47288573e-01 4.47288573e-01 2.85700023e-01
      5.49696162e-02 4.47288573e-01 4.47288573e-01 2.12611929e-02 0.
      2.47933492e-02 3.25193167e-01 1.89340170e-02 0. 5.43872833e-01
      5.43872833e-01 5.43872833e-01 6.24619871e-02 6.72481060e-01
      6.72481060e-01 8.87364373e-02 6.68021217e-02 1.90809950e-01
      1.21729866e-01 9.49020535e-02 1.11147240e-01 6.19248934e-02
      4.07838106e-01 3.95959556e-01 8.56762603e-02 2.66964078e-01
      4.07838106e-01 4.07838106e-01 4.07838106e-01 3.02273571e-01
      1.24528417e-02 4.34123516e-01 4.34123516e-01 4.34123516e-01
      2.25142330e-01 1.95318818e-01 3.70418459e-01 4.34123516e-01
      1.24928512e-01 4.47329041e-03 4.12887603e-01 3.55365843e-01
      3.19885254e-01 5.89802535e-03 5.97655363e-02 5.38532078e-01
      5.38532078e-01 1.08968392e-01 1.49373303e-03 5.08881867e-01
      5.60857117e-01 5.38276196e-01 1.16442582e-02 6.76699579e-02
      1.27126917e-01 3.26453328e-01 6.07164465e-02 6.32377863e-02
      1.55983970e-01 4.29850966e-01 3.16811770e-01 9.37256217e-02
      4.29850966e-01 4.29850966e-01 4.29850966e-01 3.45158815e-01
      2.07516715e-01 4.90452617e-01 4.90452617e-01 5.73311513e-03
      4.49785683e-03 4.63028878e-01 4.90452617e-01 1.20914713e-01
      3.65740880e-02 1.10723712e-02 5.18472433e-01 1.73223317e-01
      4.17099148e-03 0. 5.48464715e-01 5.48464715e-01 3.06488246e-01
      8.56992323e-04 0. 1.13812283e-01 6.90282226e-01 6.90282226e-01
      2.26066057e-02 0. 6.91949716e-03 1.44090384e-01 7.65232816e-02
      2.99834967e-01 9.15273875e-02 4.22264963e-01 4.22264963e-01
      4.22264963e-01 7.24233165e-02 2.68298592e-02 4.22264963e-01
      4.22264963e-01 4.35752720e-01 4.35752720e-01 4.96897437e-02
      1.39741108e-01 3.77601475e-01 4.35752720e-01 4.35752720e-01
      1.49195105e-01 2.22005889e-01 1.05412118e-02 1.79038763e-01
      2.05030199e-02 0. 0. 6.86954618e-01 6.86954618e-01 1.28758743e-01
      1.28004411e-02</_>
    <_>
      4.94145215e-01 4.94145215e-01 4.94145215e-01 8.13972130e-02
      9.31815729e-02 5.51218018e-02 0. 0. 4.94145215e-01 5.46322644e-01
      2.62207627e-01 6.43079579e-02 1.07179694e-01 5.46322644e-01
      1.21503428e-01 0. 0. 5.46322644e-01 5.52012801e-01 1.15485797e-02
      1.04718208e-02 1.88577130e-01 4.32057649e-01 1.53985620e-03 0.
      4.03200507e-01 5.52012801e-01 1.43483385e-01 0. 1.03589687e-02
      5.59351295e-02 2.56492142e-02 0. 1.91993639e-01 6.82584405e-01
      6.82584405e-01 3.43755245e-01 3.99426639e-01 3.99426639e-01
      3.99426639e-01 1.48053110e-01 2.00680897e-01 1.33945525e-01
      3.99426639e-01 3.99426639e-01 3.14646721e-01 1.01179443e-01
      8.65436047e-02 3.22210014e-01 4.73061532e-01 4.73061532e-01
      2.72344977e-01 4.73061532e-01 1.70858130e-01 1.17732853e-01
      2.21457049e-01 4.56220537e-01 4.56220537e-01 4.56220537e-01
      6.48520514e-03 2.27624811e-02 3.15324992e-01 4.56220537e-01
      1.15870200e-02 1.03636362e-01 4.70154554e-01 2.79785901e-01
      1.69634782e-02 0. 5.39001644e-01 5.39001644e-01 3.21066737e-01
      2.88113812e-03 1.33758396e-01 5.48923314e-01 5.48923314e-01
      1.10479333e-02 1.09086689e-02 2.49772325e-01 5.48923314e-01
      1.00204736e-01 4.57666218e-01 5.66896163e-02 2.09935248e-01
      2.92191535e-01 1.46729171e-01 5.83377816e-02 4.57666218e-01
      4.57666218e-01 4.57666218e-01 4.88976210e-01 4.88976210e-01
      3.54509294e-01 1.38694301e-01 2.79179990e-01 4.88976210e-01
      5.96209988e-02 1.01075759e-02 2.26521000e-01 1.32190719e-01
      3.67302060e-01 3.04477632e-01 3.02510839e-02 8.32194835e-02
      5.08568406e-01 5.08568406e-01 4.74029869e-01 6.42524217e-04
      2.41272923e-04 5.07267676e-02 6.40540302e-01 6.40540302e-01
      3.93863291e-01 0. 4.38430123e-02 8.84421989e-02 7.46690109e-02
      4.21239883e-01 1.55256083e-02 6.56189919e-02 4.98827368e-01
      4.98827368e-01 4.52039599e-01 2.80184187e-02 1.02987729e-01
      3.15656662e-01 4.76122648e-01 6.82624206e-02 2.60982965e-03
      4.48543858e-03 6.16344571e-01 6.16344571e-01 1.17680505e-02 0.
      5.06654568e-02 3.39783132e-02 2.70672143e-02 7.12321885e-03 0.
      6.50955081e-01 6.50955081e-01 3.77794594e-01 3.67300957e-02
      5.80151042e-04</_>
    <_>
      6.68350577e-01 6.68350577e-01 2.98970729e-01 0. 0. 1.90230254e-02
      4.17604335e-02 1.63951353e-03 9.19283181e-02 5.63147545e-01
      4.58599299e-01 9.96290706e-03 5.23252301e-02 3.29884082e-01
      1.56983167e-01 1.16136126e-01 9.17327299e-04 5.63147545e-01
      4.93695259e-01 4.27951477e-03 1.73652042e-02 2.88471788e-01
      4.24146116e-01 1.72356609e-02 1.14626456e-02 4.93695259e-01
      4.93695259e-01 3.63229797e-03 0. 1.80523470e-02 5.49385548e-02
      1.80833433e-02 0. 2.18862578e-01 6.86136007e-01 6.86136007e-01
      1.75741538e-01 6.54300272e-01 6.54300272e-01 3.52164567e-03
      5.03482036e-02 1.99846789e-01 2.50969976e-01 2.95288786e-02
      4.58188727e-03 2.22586587e-01 3.35499644e-01 6.43161759e-02
      1.13953970e-01 4.17557627e-01 4.17557627e-01 4.17557627e-01
      3.45230907e-01 4.17557627e-01 2.37647612e-02 3.76729071e-02
      4.26598996e-01 4.26598996e-01 4.26598996e-01 3.45340133e-01
      3.73860955e-01 3.26171398e-01 2.87010401e-01 0. 2.58780532e-02
      5.00718355e-01 4.21512276e-01 1.45041663e-02 0. 5.00718355e-01
      5.00718355e-01 2.53554255e-01 1.04713626e-02 4.28262085e-01
      4.28262085e-01 4.28262085e-01 1.41996443e-01 3.04488152e-01
      4.28262085e-01 3.85969520e-01 1.14154536e-02 4.22234446e-01
      2.46655524e-01 1.16107501e-02 1.24831134e-02 4.22234446e-01
      4.22234446e-01 4.22234446e-01 4.22234446e-01 2.07949370e-01
      4.66601580e-01 4.66601580e-01 4.66601580e-01 3.08257639e-01
      1.46215454e-01 2.65109390e-01 1.30780354e-01 3.80417965e-02
      3.70071471e-01 1.51396275e-01 4.37597126e-01 4.37597126e-01
      1.22959867e-01 6.57247007e-03 4.37597126e-01 4.37597126e-01
      4.37597126e-01 9.44941211e-03 8.34472943e-03 9.15210173e-02
      4.75486904e-01 4.75486904e-01 4.75486904e-01 3.47874999e-01
      4.06128883e-01 1.50279641e-01 0. 3.94390821e-01 3.94390821e-01
      3.94390821e-01 3.94390821e-01 3.94390821e-01 2.56505668e-01
      3.36293578e-01 1.60634100e-01 1.16822898e-01 5.25332093e-01
      2.29146749e-01 3.76983881e-02 1.44627914e-01 5.25332093e-01
      5.25332093e-01 2.59203892e-02 0. 3.02181810e-01 1.25804812e-01
      1.69122860e-01 3.09526976e-02 0. 4.60811764e-01 6.05061710e-01
      6.05061710e-01 6.25620112e-02 1.05003910e-02</_>
    <_>
      6.69587314e-01 6.69587314e-01 9.77153853e-02 0. 0. 0. 0. 0.
      2.95081019e-01 6.11242354e-01 5.76377153e-01 0. 5.47702238e-03
      1.24581344e-01 4.43402976e-02 0. 0. 5.20146728e-01 6.58442080e-01
      4.51519713e-02 6.19924348e-03 6.38281330e-02 3.11285883e-01
      3.92283462e-02 8.00182679e-05 1.47463560e-01 6.58442080e-01
      3.74878228e-01 0. 1.22292656e-02 2.06888802e-02 2.46038325e-02
      1.14005568e-04 2.60675728e-01 6.26130998e-01 6.26130998e-01
      5.54560661e-01 5.54560661e-01 5.54560661e-01 2.02010646e-01
      8.35081339e-02 2.77854558e-02 1.38595328e-01 3.46711800e-02
      5.37097044e-02 4.06039804e-01 3.57935697e-01 3.25120310e-03
      3.11334319e-02 4.06039804e-01 4.06039804e-01 4.06039804e-01
      3.46908748e-01 2.95003444e-01 3.54159743e-01 3.84551734e-01
      3.84551734e-01 3.84551734e-01 3.84551734e-01 3.41058344e-01
      4.86784913e-02 1.44893453e-01 3.73529762e-01 3.23693492e-02
      1.73711345e-01 4.24239486e-01 1.72486901e-01 6.31355047e-02
      7.61146247e-02 5.41888475e-01 5.41888475e-01 3.95687282e-01
      2.42899545e-02 3.58769804e-01 5.34641743e-01 5.34641743e-01
      5.34641743e-01 4.19221306e-03 7.52819031e-02 4.20776345e-02
      1.93414334e-02 1.77770987e-01 3.19370031e-02 1.62892282e-01
      4.56442654e-01 4.56442654e-01 1.89263552e-01 2.59044766e-01
      4.56442654e-01 4.56442654e-01 4.18184251e-01 4.18184251e-01
      1.57805517e-01 1.87280625e-01 4.18184251e-01 4.18184251e-01
      1.09095708e-01 2.22606927e-01 4.18184251e-01 1.02530956e-01
      3.03108215e-01 1.54570460e-01 1.57564040e-02 6.15758300e-02
      6.43388391e-01 6.43388391e-01 1.88043162e-01 0. 1.25183299e-01
      4.36140060e-01 5.12831807e-01 5.12831807e-01 5.12831807e-01 0. 0.
      0. 0. 4.41731751e-01 3.26663792e-01 2.90625244e-01 4.41731751e-01
      4.41731751e-01 1.14502117e-01 2.31059313e-01 2.08928138e-01
      3.29976410e-01 2.89616972e-01 1.75468192e-01 1.77552298e-01
      3.68465483e-01 5.49055099e-01 5.49055099e-01 2.11577520e-01
      1.04836568e-01 2.32119575e-01 4.05918598e-01 2.28094146e-01
      1.32760182e-01 3.09559837e-04 3.20067227e-01 4.05918598e-01
      4.05918598e-01 4.05918598e-01 4.05918598e-01</_>
    <_>
      5.70565164e-01 5.70565164e-01 4.46307570e-01 0. 4.73851198e-03
      1.04346119e-01 2.45815832e-02 0. 3.64016771e-01 4.56257254e-01
      4.56257254e-01 2.32748222e-02 2.05601379e-02 4.44841653e-01
      4.27572936e-01 5.43489531e-02 3.89955975e-02 4.39271748e-01
      4.63361114e-01 4.38331775e-02 1.26456872e-01 3.34836334e-01
      4.63361114e-01 7.83759579e-02 1.96658839e-02 4.63361114e-01
      4.63361114e-01 7.90069699e-02 0. 1.12209938e-01 9.63840336e-02
      3.70207876e-02 0. 4.26717013e-01 6.25369966e-01 6.25369966e-01
      2.21866429e-01 4.50076967e-01 4.50076967e-01 3.72913152e-01
      3.45906354e-02 4.50076967e-01 4.44337875e-01 1.65994484e-02
      2.44832244e-02 2.68521339e-01 2.21712098e-01 6.16839863e-02
      5.41780442e-02 5.36716759e-01 5.36716759e-01 5.36716759e-01
      2.54625157e-02 4.23905887e-02 2.50312407e-02 4.24023300e-01
      4.24023300e-01 4.24023300e-01 4.24023300e-01 1.44132346e-01
      2.32061058e-01 4.24023300e-01 1.46739170e-01 1.38793548e-03
      1.44716486e-01 5.01755893e-01 1.17153898e-01 1.53815355e-02
      7.33940974e-02 5.87489963e-01 5.87489963e-01 1.08594850e-01
      5.71149401e-02 4.21585560e-01 4.21585560e-01 4.21585560e-01
      1.50821477e-01 2.10890830e-01 3.00725490e-01 3.52038473e-01
      4.21585560e-01 4.25354213e-01 4.25354213e-01 1.99187964e-01
      1.52063712e-01 7.81574920e-02 2.20620111e-01 3.93020600e-01
      4.25354213e-01 4.25354213e-01 4.75251585e-01 4.75251585e-01
      3.01305085e-01 1.61530008e-03 5.02526667e-03 4.75251585e-01
      4.75251585e-01 2.55477317e-02 1.82102304e-02 3.37700136e-02
      3.72881085e-01 1.28706038e-01 3.36441793e-03 7.99782458e-04
      6.15828872e-01 6.15828872e-01 2.80362457e-01 0. 6.27853116e-03
      4.28350240e-01 5.06754100e-01 5.06754100e-01 5.06754100e-01
      1.38317980e-02 1.37189003e-02 1.82201609e-01 8.62524509e-02
      4.42275017e-01 1.48872226e-01 1.87061012e-01 4.42275017e-01
      4.42275017e-01 2.57132292e-01 5.03143743e-02 3.75081450e-01
      3.77188504e-01 4.54004765e-01 2.46358559e-01 2.66190938e-04
      6.09225295e-02 5.20309150e-01 5.20309150e-01 4.26560253e-01
      6.19342597e-03 2.90515535e-02 1.91290509e-02 5.30997664e-02
      5.36398496e-04 0. 9.04937238e-02 6.99079871e-01 6.99079871e-01
      6.49702325e-02 0.</_>
    <_>
      6.90712154e-01 6.90712154e-01 6.83293492e-02 0. 2.18373742e-02
      1.41978920e-01 0. 0. 1.16766594e-01 5.34267068e-01 1.54469922e-01
      0. 6.89999806e-03 4.38219666e-01 4.55891401e-01 0. 0.
      5.34267068e-01 5.13016999e-01 2.71545746e-03 8.23289715e-03
      3.73486370e-01 5.13016999e-01 2.28704646e-01 0. 1.15948990e-01
      5.13016999e-01 3.62007529e-01 0. 5.61090074e-02 3.09350878e-01
      8.20561051e-02 0. 1.50098309e-01 6.06131017e-01 6.06131017e-01
      4.45016205e-01 4.45016205e-01 4.45016205e-01 0. 3.88301089e-02
      4.45016205e-01 4.45016205e-01 3.21072489e-02 5.30950315e-02
      4.81125742e-01 8.41483474e-02 0. 4.01449986e-02 5.80311239e-01
      5.80311239e-01 1.91180989e-01 7.90602416e-02 1.94185391e-01
      9.52533409e-02 3.65681291e-01 4.78032798e-01 4.78032798e-01
      4.78032798e-01 3.66226822e-01 0. 4.88681160e-02 1.74278840e-01
      4.07507131e-03 4.00838733e-01 4.46676493e-01 4.46676493e-01
      7.97967687e-02 6.15862608e-02 4.46676493e-01 4.46676493e-01
      1.63125530e-01 1.19256198e-01 4.36582088e-01 4.36582088e-01
      3.93401057e-01 2.23176330e-01 3.85966390e-01 4.36582088e-01
      1.73601285e-01 1.61014050e-01 2.87970454e-01 8.80740210e-02
      4.14740503e-01 4.67673451e-01 4.56899405e-02 1.52230099e-01
      2.26314247e-01 4.67673451e-01 4.67673451e-01 5.05766094e-01
      5.05766094e-01 3.09614003e-01 1.85479615e-02 2.25061551e-02
      2.50363499e-01 4.94019389e-02 2.56352961e-01 5.05766094e-01
      9.63705331e-02 5.29675484e-01 3.53992224e-01 8.34350195e-03
      5.01269381e-03 5.29675484e-01 5.29675484e-01 1.35454789e-01
      1.16888736e-03 0. 6.02737479e-02 4.44532156e-01 4.44532156e-01
      4.44532156e-01 4.44532156e-01 4.44532156e-01 6.19052388e-02
      7.09004840e-03 1.10260338e-01 4.42899317e-02 4.34298456e-01
      4.91953939e-01 4.91953939e-01 5.33091463e-02 4.34814319e-02
      3.00704002e-01 4.61692274e-01 4.35916722e-01 3.03602219e-01
      9.91325732e-03 3.72073650e-01 4.35916722e-01 4.35916722e-01
      3.09368614e-02 6.23185299e-02 4.35916722e-01 9.47420076e-02
      2.21436694e-01 9.94965318e-04 0. 1.94037944e-01 6.69530988e-01
      6.69530988e-01 3.15755419e-02 1.06514860e-02</_>
    <_>
      5.24930120e-01 5.24930120e-01 1.24286264e-02 0. 0. 0.
      1.90010816e-01 3.63103628e-01 5.24930120e-01 5.15269279e-01
      5.15269279e-01 1.80011443e-06 0. 5.31787227e-04 7.28440646e-04
      2.83086210e-01 3.43813956e-01 5.15269279e-01 6.79781020e-01
      7.53886998e-02 0. 0. 5.57545088e-02 2.23435424e-02 0.
      2.44372874e-01 6.79781020e-01 3.65529299e-01 0. 0. 0.
      2.27973573e-02 7.07185036e-03 9.02951062e-02 6.52362049e-01
      6.52362049e-01 4.99194950e-01 4.99194950e-01 4.11865324e-01
      6.90899864e-02 5.35678566e-02 1.29490793e-01 4.99194950e-01
      1.99245885e-01 1.16981424e-01 3.85880142e-01 3.85880142e-01
      6.46712407e-02 3.85880142e-01 3.85880142e-01 3.85880142e-01
      3.46308947e-01 1.93434104e-01 3.00163984e-01 4.00761455e-01
      3.86578381e-01 3.40731770e-01 2.48566628e-01 4.00761455e-01
      4.00761455e-01 1.50172517e-03 1.61953151e-01 4.00761455e-01
      4.54485938e-02 1.78862318e-01 3.91155183e-01 1.06105700e-01
      1.23743907e-01 6.85710683e-02 5.08784890e-01 5.08784890e-01
      5.08784890e-01 6.28189668e-02 3.50749373e-01 4.49271530e-01
      4.49271530e-01 2.48148367e-01 7.68210590e-02 4.49271530e-01
      3.46357435e-01 2.74888694e-01 4.26278174e-01 7.20253438e-02
      1.62563119e-02 4.26278174e-01 4.26278174e-01 4.12964284e-01
      2.00604931e-01 2.29468241e-01 4.26278174e-01 4.69383776e-01
      4.69383776e-01 1.43395856e-01 5.70533872e-02 4.69383776e-01
      4.69383776e-01 1.57937668e-02 7.81267707e-04 2.99932837e-01
      1.52268007e-01 3.47092956e-01 1.94197327e-01 2.48899851e-02
      2.30232045e-01 5.60039043e-01 5.60039043e-01 3.63248557e-01
      1.31353885e-02 3.34753729e-02 3.63203813e-03 9.72203836e-02
      6.98416352e-01 6.98416352e-01 0. 1.27861062e-02 2.38642972e-02
      7.83494860e-02 2.13865772e-01 3.24197975e-03 0. 6.69858336e-01
      6.69858336e-01 7.10405335e-02 1.87355722e-03 4.10676049e-03
      2.12311447e-01 2.04790488e-01 1.43467635e-02 1.00316922e-03
      5.43528944e-02 6.86926007e-01 6.86926007e-01 1.13083527e-03 0.
      6.56235740e-02 1.37876356e-02 3.19608231e-03 2.54503777e-03 0.
      6.58818483e-01 6.58818483e-01 3.53733212e-01 2.07798928e-03
      9.61165992e-04</_>
    <_>
      4.40897763e-01 4.40897763e-01 4.40897763e-01 3.92080732e-02 0. 0.
      1.48675814e-01 4.40897763e-01 4.40897763e-01 6.27910614e-01
      6.27910614e-01 1.37201976e-03 0. 5.18879592e-02 4.60555106e-02
      3.24622504e-02 1.19944267e-01 4.30036664e-01 6.32242143e-01
      5.54225557e-02 0. 3.39184254e-02 3.58260810e-01 1.17253080e-01
      9.49382130e-03 2.18668744e-01 6.32242143e-01 3.15105051e-01
      1.39661541e-04 0. 6.61357492e-02 1.12396024e-01 1.23508200e-02
      1.83436140e-01 6.49390996e-01 6.49390996e-01 4.66078728e-01
      4.66078728e-01 4.66078728e-01 1.64252505e-01 8.48283172e-02
      5.58386035e-02 1.10757984e-01 2.77249336e-01 4.66078728e-01
      4.21794564e-01 4.21794564e-01 3.58931422e-02 1.60771201e-03
      4.21794564e-01 4.21794564e-01 3.34075511e-01 2.31880441e-01
      3.42750788e-01 4.41224247e-01 4.41224247e-01 3.09099227e-01
      1.71922013e-01 4.41224247e-01 4.41224247e-01 2.25070510e-02
      6.97888061e-02 2.93939948e-01 9.04070586e-02 4.43379730e-01
      4.43379730e-01 1.71852604e-01 2.39759475e-01 1.09046236e-01
      4.43379730e-01 4.43379730e-01 3.19603175e-01 1.02885492e-01
      4.26517814e-01 5.10644257e-01 5.10644257e-01 5.10644257e-01
      6.46602586e-02 9.32928845e-02 8.37118924e-02 1.52387284e-02
      2.05532983e-01 1.75381824e-02 1.99457422e-01 4.06176865e-01
      4.06176865e-01 3.64598602e-01 3.47501159e-01 4.06176865e-01
      4.06176865e-01 4.36449021e-01 4.36449021e-01 7.34536052e-02
      1.75199136e-01 4.36449021e-01 4.36449021e-01 3.03712897e-02
      7.86691234e-02 4.36449021e-01 2.04065382e-01 4.91036355e-01
      1.48880854e-01 5.28518762e-03 1.87477872e-01 5.61927855e-01
      5.61927855e-01 1.50865987e-01 1.20483502e-03 0. 1.28128037e-01
      5.70842445e-01 5.70842445e-01 5.70842445e-01 1.73058026e-02 0. 0.
      0. 3.06714792e-02 1.07714832e-01 5.08040726e-01 5.08040726e-01
      5.08040726e-01 4.37850267e-01 9.79553312e-02 1.14239641e-02
      8.14132914e-02 1.25790522e-01 3.12658697e-02 2.87426651e-01
      4.65160191e-01 4.65160191e-01 4.65160191e-01 4.65160191e-01
      1.53436601e-01 8.30668285e-02 1.99846551e-02 5.64469537e-03 0. 0.
      5.71425796e-01 5.71425796e-01 5.71425796e-01 1.19495116e-01
      1.18505699e-03</_>
    <_>
      5.68326294e-01 5.68326294e-01 1.34461880e-01 3.24303433e-02
      7.77937993e-02 1.25263464e-02 0. 0. 5.68326294e-01 6.44209206e-01
      3.95118073e-03 0. 1.02698328e-02 3.98068517e-01 7.05521181e-02 0.
      0. 6.44209206e-01 6.19532764e-01 0. 0. 7.45493546e-02
      3.42841297e-01 1.81759298e-02 8.57421383e-03 3.20423037e-01
      6.19532764e-01 3.67362291e-01 0. 0. 2.87300199e-02 6.01496100e-02
      0. 1.18619613e-01 6.48097396e-01 6.48097396e-01 3.76590103e-01
      3.76590103e-01 3.76590103e-01 2.25820318e-01 3.76590103e-01
      3.76590103e-01 2.19937965e-01 3.76590103e-01 2.14358807e-01
      5.45429170e-01 8.90321285e-03 0. 1.14739001e-01 5.45429170e-01
      5.45429170e-01 2.05345191e-02 1.39688700e-01 2.62479275e-01
      4.05056030e-01 4.37225163e-01 2.13356256e-01 4.37225163e-01
      4.37225163e-01 5.66117987e-02 8.24052468e-03 1.34555638e-01
      4.37225163e-01 1.03386343e-01 3.62103075e-01 3.34915310e-01
      2.74428546e-01 1.69032738e-01 1.13932267e-01 4.56290483e-01
      4.56290483e-01 4.56290483e-01 3.27421236e-03 4.94589396e-02
      4.94218975e-01 4.94218975e-01 7.36479908e-02 7.89992660e-02
      6.27088398e-02 4.94218975e-01 4.94218975e-01 4.66390699e-01
      3.36268038e-01 7.71379694e-02 3.54412585e-01 2.66210109e-01
      1.64993703e-01 7.41672330e-03 4.66390699e-01 4.66390699e-01
      5.40401280e-01 5.40401280e-01 6.26459941e-02 5.57740144e-02
      3.25308979e-01 5.40401280e-01 1.66981257e-02 1.76318653e-03
      7.32101277e-02 2.17546865e-01 3.62356931e-01 1.08168982e-01
      2.25537121e-02 1.26548648e-01 6.18790925e-01 6.18790925e-01
      1.45479620e-01 0. 9.42224264e-03 1.23075815e-02 6.52609527e-01
      6.52609527e-01 3.38715643e-01 0. 0. 1.01950407e-01 1.27764404e-01
      3.57156008e-01 4.75368612e-02 5.87657019e-02 4.84874725e-01
      4.84874725e-01 4.76002395e-01 0. 8.96672979e-02 3.96305501e-01
      3.00558895e-01 1.34135738e-01 0. 9.84736811e-03 6.64632440e-01
      6.64632440e-01 1.05170032e-03 2.03086427e-04 3.82902808e-02
      9.35760513e-03 7.77271623e-03 0. 0. 6.31273448e-01 7.54595697e-01
      1.56203866e-01 0. 0.</_>
    <_>
      5.70772290e-01 5.70772290e-01 1.30220622e-01 0. 0. 0. 0.
      4.21446093e-05 5.70772290e-01 7.04322278e-01 2.88026370e-02 0. 0.
      0. 0. 0. 1.69903680e-04 7.04322278e-01 7.03557968e-01
      5.46737388e-02 0. 0. 0. 0. 0. 0. 7.03557968e-01 5.73625743e-01
      3.04987450e-04 0. 0. 0. 0. 8.44545215e-02 5.73625743e-01
      5.73625743e-01 5.43084800e-01 5.43084800e-01 5.43084800e-01
      9.43646654e-02 1.08461216e-01 1.23855509e-01 1.48886099e-01
      6.78659230e-02 2.16729745e-01 5.22271991e-01 6.46522865e-02
      3.24373879e-02 1.91978857e-01 5.22271991e-01 3.03230673e-01
      1.72568202e-01 1.12532631e-01 5.22271991e-01 4.70650494e-01
      1.59276247e-01 4.30260301e-01 3.21680039e-01 4.70650494e-01
      1.29585296e-01 1.92343272e-04 1.17728567e-04 4.70650494e-01
      2.62878925e-01 1.66702662e-02 7.10659698e-02 1.52102849e-02
      1.89689901e-02 4.20812368e-02 5.53076684e-01 5.53076684e-01
      5.53076684e-01 1.11362839e-03 2.67943203e-01 5.60369849e-01
      5.60369849e-01 4.87963587e-01 3.26443166e-02 1.55093998e-01
      1.29994541e-01 1.20224051e-01 4.57122147e-01 1.75532456e-02
      2.58676540e-02 4.57122147e-01 4.57122147e-01 2.81217724e-01
      1.66448697e-01 2.27652341e-01 4.57122147e-01 4.44022089e-01
      2.92449594e-01 4.13476765e-01 2.33437210e-01 4.44022089e-01
      4.44022089e-01 1.27171515e-05 4.34285845e-04 3.05147648e-01
      2.49739382e-02 3.58569361e-02 7.80623034e-02 1.23446742e-02
      5.55527210e-01 5.55527210e-01 5.55527210e-01 2.45887414e-01
      2.18791817e-03 3.57282668e-04 8.68889317e-03 1.25826150e-01
      6.98958635e-01 6.98958635e-01 0. 0. 0. 5.33085829e-03
      3.32916491e-02 0. 6.33137242e-04 6.70494854e-01 6.70494854e-01
      2.99073189e-01 0. 0. 6.02165461e-02 4.44584340e-02 2.68923148e-04
      0. 3.26976031e-01 6.64839029e-01 6.64839029e-01 0. 0.
      2.12305412e-02 2.94906413e-03 4.86718018e-05 0. 3.03566623e-02
      6.92135274e-01 6.92135274e-01 1.84474602e-01 5.20662684e-03 0.</_>
    <_>
      6.51601672e-01 6.51601672e-01 1.04571417e-01 0. 8.27982873e-02
      3.17478359e-01 3.81293148e-02 2.55942415e-03 1.55825660e-01
      4.95292664e-01 3.65001678e-01 0. 3.14853117e-02 4.95292664e-01
      4.95292664e-01 7.33904615e-02 1.28157990e-04 3.45695108e-01
      4.23852503e-01 2.21632328e-02 1.57031149e-01 4.23852503e-01
      4.23852503e-01 2.65709102e-01 4.19516116e-02 4.23852503e-01
      4.23852503e-01 4.69267666e-02 0. 1.90954477e-01 3.13472033e-01
      1.89330578e-02 0. 1.94998637e-01 6.39648438e-01 6.39648438e-01
      2.97097981e-01 4.28155631e-01 4.28155631e-01 6.29026676e-03
      1.74147412e-01 4.28155631e-01 4.28155631e-01 3.79211426e-01
      4.34317719e-03 1.69340670e-01 5.17227799e-02 0. 1.74577106e-02
      5.58480918e-01 5.58480918e-01 5.58480918e-01 1.64137736e-01
      1.10706054e-02 1.45902917e-01 4.77321476e-01 4.77321476e-01
      4.77321476e-01 4.77321476e-01 1.79792210e-01 1.02992132e-02
      1.39194131e-01 1.03900895e-01 2.21841335e-02 3.71723115e-01
      4.96291250e-01 2.81915188e-01 3.62647837e-03 1.96124110e-02
      4.96291250e-01 4.96291250e-01 1.93865836e-01 1.91450480e-03
      6.28356338e-02 4.91370291e-01 4.91370291e-01 6.78313076e-02
      2.32410654e-02 4.91370291e-01 4.91370291e-01 1.42197445e-01
      5.03704727e-01 2.68598467e-01 3.32586579e-02 1.04544118e-01
      9.10887197e-02 4.37486656e-02 3.73392522e-01 5.03704727e-01
      5.03704727e-01 5.66219509e-01 5.66219509e-01 1.54883236e-01
      3.02175339e-03 7.46470392e-02 5.66219509e-01 2.16564443e-02 0.
      4.99325693e-02 1.58823878e-01 5.22790611e-01 2.57814169e-01
      3.29907588e-03 1.67183176e-01 5.22790611e-01 5.22790611e-01
      2.34935552e-01 0. 7.50018563e-03 1.05620110e-02 5.41538835e-01
      5.41538835e-01 5.41538835e-01 0. 1.22070331e-02 3.00642341e-01
      1.55230612e-01 4.65851218e-01 1.36181295e-01 3.91059369e-02
      4.65851218e-01 4.65851218e-01 3.07724029e-01 2.47666566e-03
      1.71264932e-01 4.47424203e-01 5.05334496e-01 2.57306933e-01
      9.40948911e-03 3.76291424e-02 5.78813672e-01 5.78813672e-01
      2.56555229e-02 0. 2.09110901e-02 3.04495692e-02 5.22517487e-02 0.
      0. 4.99115705e-01 8.14527512e-01 2.75011301e-01 3.32044158e-03 0.</_>
    <_>
      6.92375183e-01 1.84683621e-01 1.46079473e-02 0. 0. 0. 0. 0.
      6.92375183e-01 7.01502323e-01 9.36934128e-02 0. 0. 2.33862479e-03
      1.49506272e-03 0. 0. 7.01502323e-01 6.98348045e-01 0. 0.
      1.43457111e-03 1.26746044e-01 3.85004692e-02 0. 9.99573618e-03
      6.98348045e-01 5.67766547e-01 0. 0. 7.93940946e-03 1.17607750e-01
      1.34433527e-02 1.14797324e-01 5.67766547e-01 5.67766547e-01
      4.67991799e-01 4.67991799e-01 4.67991799e-01 1.44150406e-01
      2.96049982e-01 2.03190058e-01 9.17661935e-02 1.05953857e-01
      4.10996616e-01 5.26208580e-01 6.10609241e-02 6.08768256e-04
      6.16661739e-04 5.26208580e-01 5.26208580e-01 2.72542499e-02
      6.65049106e-02 3.93908232e-01 5.06527543e-01 2.34001786e-01
      7.41214231e-02 9.50751677e-02 5.06527543e-01 5.06527543e-01 0.
      6.82472298e-03 3.94834250e-01 2.51395285e-01 3.91692460e-01
      2.35701725e-01 3.09567422e-01 3.91692460e-01 1.19937763e-01
      3.91692460e-01 3.91692460e-01 3.91692460e-01 3.64607796e-02
      7.15052113e-02 5.12718856e-01 5.12718856e-01 2.99561173e-01
      1.31483212e-01 1.11745782e-01 4.77663308e-01 3.39118987e-01
      3.26854795e-01 4.33346070e-03 1.60790775e-02 4.34741348e-01
      4.34741348e-01 3.62985820e-01 2.80514341e-02 4.34741348e-01
      4.34741348e-01 4.48717266e-01 4.48717266e-01 1.88385211e-02
      4.94844019e-02 4.48717266e-01 4.39807147e-01 1.75558440e-02
      1.44394003e-02 4.41277266e-01 4.33348030e-01 5.00107646e-01
      5.84275648e-02 3.52120847e-02 1.39600918e-01 5.00107646e-01
      5.00107646e-01 1.80921137e-01 4.16875957e-03 5.16160578e-03
      3.98739390e-02 2.28801131e-01 6.82773650e-01 6.82773650e-01 0. 0.
      2.01744121e-02 8.03162307e-02 1.06562614e-01 5.53520955e-03
      2.57459637e-02 6.40170157e-01 6.40170157e-01 1.13576301e-03 0.
      3.48681062e-02 4.00882423e-01 3.69952619e-01 4.41314988e-02 0.
      2.78184593e-01 6.18513167e-01 6.18513167e-01 1.15001090e-02
      2.90410221e-03 1.11209124e-01 6.25963211e-02 3.04177050e-02 0. 0.
      6.13970160e-01 6.13970160e-01 4.84844953e-01 5.59487846e-03
      1.29670661e-03</_>
    <_>
      6.92034900e-01 6.92034900e-01 4.98213805e-02 0. 0. 1.29153477e-02
      1.94851309e-03 0. 1.80594146e-01 5.62676966e-01 5.62676966e-01 0.
      5.02483081e-03 2.38162026e-01 1.40469283e-01 2.98825954e-03 0.
      5.33557475e-01 5.79072118e-01 8.35898593e-02 4.35937103e-03
      1.63879037e-01 4.39640850e-01 5.12750223e-02 2.27670372e-03
      3.06247771e-01 5.79072118e-01 1.03570908e-01 0. 8.45795125e-03
      5.86320385e-02 2.29206849e-02 0. 2.55532384e-01 6.75720334e-01
      6.75720334e-01 5.85625172e-01 5.85625172e-01 4.34124410e-01
      7.24652112e-02 3.25995572e-02 1.14274509e-01 3.04965645e-01
      8.55671614e-02 8.72439146e-03 4.61322457e-01 2.63662487e-01
      1.69214036e-03 4.45389375e-02 4.61322457e-01 4.61322457e-01
      4.61322457e-01 2.66628295e-01 3.90293226e-02 8.82403404e-02
      2.16040183e-02 5.21039188e-01 5.21039188e-01 5.21039188e-01
      3.39455932e-01 2.48399824e-02 1.48770586e-01 1.84710458e-01
      1.88229769e-03 3.63531858e-02 5.27941883e-01 3.69334608e-01
      2.88691595e-02 0. 5.27941883e-01 5.27941883e-01 1.41397357e-01
      2.09521446e-02 4.20792431e-01 5.40969849e-01 5.40969849e-01
      2.91819334e-01 1.46955131e-02 2.46001899e-01 2.93094248e-01 0.
      7.67247453e-02 3.42085888e-03 1.81697294e-01 2.99165428e-01
      4.29732017e-02 1.86715290e-01 5.25872827e-01 5.25872827e-01
      5.25872827e-01 4.57715362e-01 4.57715362e-01 4.57715362e-01
      2.64486551e-01 3.92274112e-02 7.44805858e-02 4.70211022e-02
      2.79578805e-01 4.57715362e-01 6.87754899e-02 4.62957114e-01
      4.62957114e-01 6.33687451e-02 1.81118769e-04 4.62957114e-01
      4.62957114e-01 3.59462291e-01 9.99228563e-03 0. 9.42079723e-02
      6.88629091e-01 6.88629091e-01 1.84215456e-01 0. 1.35385869e-02
      4.13725078e-02 0. 1.26655579e-01 3.29223718e-03 2.38266155e-01
      4.89277035e-01 4.89277035e-01 4.95629981e-02 2.59803906e-02
      4.48310792e-01 4.89277035e-01 4.76171702e-01 2.45469421e-01
      3.22236642e-02 1.33394271e-01 4.76171702e-01 4.76171702e-01
      5.32378666e-02 7.97749609e-02 4.76171702e-01 1.70674831e-01
      2.48052210e-01 6.47770315e-02 4.29998524e-03 4.82199937e-01
      5.76765239e-01 5.76765239e-01 3.51946726e-02 1.71624254e-02</_>
    <_>
      6.56928420e-01 3.59120637e-01 3.69319171e-02 0. 0. 0. 0. 0.
      6.56928420e-01 6.96278811e-01 1.53100505e-01 0. 0. 0. 0.
      1.05496135e-03 6.96289135e-05 6.96278811e-01 7.02627897e-01
      2.00800989e-02 0. 2.76474701e-03 4.88837399e-02 6.11974485e-03
      4.15588543e-03 5.25252670e-02 7.02627897e-01 5.68117321e-01 0. 0.
      3.39679857e-04 1.38688665e-02 2.88230693e-03 1.60792395e-01
      5.68117321e-01 5.68117321e-01 4.64994997e-01 3.65943432e-01
      3.90184194e-01 4.64994997e-01 1.95504710e-01 5.82732148e-02
      1.00160494e-01 9.42657590e-02 4.64994997e-01 4.50951010e-01
      1.52540892e-01 5.21457056e-03 6.02322556e-02 4.50951010e-01
      4.50951010e-01 1.83487698e-01 3.48535180e-01 4.50951010e-01
      4.11774784e-01 4.11774784e-01 2.78151691e-01 2.41225198e-01
      4.11774784e-01 4.11774784e-01 7.13829324e-02 8.62586424e-02
      4.11774784e-01 1.41109571e-01 1.94632933e-01 1.82630345e-01
      5.83372451e-02 6.36545867e-02 4.73462820e-01 4.73462820e-01
      4.73462820e-01 4.73462820e-01 7.02612177e-02 3.50463241e-02
      1.90919459e-01 6.79787993e-01 6.79787993e-01 2.23583989e-02
      7.91329667e-02 1.25156567e-01 6.28423989e-02 3.58170956e-01
      3.46759409e-02 5.80551401e-02 4.55161721e-01 4.55161721e-01
      1.61352962e-01 8.87166113e-02 4.55161721e-01 4.55161721e-01
      4.53627586e-01 4.53627586e-01 6.71254992e-02 1.72327623e-01
      4.53627586e-01 4.53627586e-01 1.55166462e-01 2.97001991e-02
      3.36445272e-01 6.60526454e-02 1.71963602e-01 4.86355387e-02
      8.68438371e-03 1.28271252e-01 6.79672658e-01 6.79672658e-01
      1.28359973e-01 0. 0. 0. 5.41068129e-02 7.03579843e-01
      7.03579843e-01 0. 0. 0. 0. 3.46125625e-02 0. 1.20026572e-02
      7.03103125e-01 7.03103125e-01 4.54513654e-02 0. 0. 2.94204019e-02
      3.57656367e-02 0. 5.69908996e-04 2.55908042e-01 6.80001915e-01
      6.80001915e-01 2.92522609e-02 0. 2.79662888e-02 0. 0. 0. 0.
      6.43221319e-01 6.43221319e-01 4.06847119e-01 2.42092498e-02 0.</_>
    <_>
      6.90329492e-01 6.90329492e-01 2.66056601e-02 0. 0. 1.62822619e-01
      2.66955700e-02 0. 1.09851286e-01 5.54502010e-01 5.54502010e-01
      3.11265253e-02 4.91677970e-02 2.21137017e-01 5.54502010e-01
      2.42442489e-02 7.03904836e-04 1.38452798e-01 3.74391884e-01
      3.74391884e-01 3.13071609e-01 2.23248884e-01 3.74391884e-01
      3.74391884e-01 8.59654471e-02 3.74391884e-01 3.74391884e-01
      1.08770512e-01 8.71473402e-02 1.20149888e-01 3.83800641e-02
      6.52080029e-02 2.95611788e-02 5.63887835e-01 5.63887835e-01
      5.63887835e-01 4.45250124e-01 4.45250124e-01 4.45250124e-01
      2.46351343e-02 4.44257772e-03 4.45250124e-01 4.45250124e-01
      5.93296550e-02 1.29378261e-02 3.65209073e-01 3.19586545e-01
      1.39738366e-01 2.70687267e-02 2.59234250e-01 6.05249941e-01
      5.51052928e-01 3.14329676e-02 2.60532228e-03 9.51065719e-02
      4.31219190e-01 4.31219190e-01 4.31219190e-01 4.31219190e-01
      4.28039283e-01 1.46021441e-01 1.94532499e-01 2.15515252e-02
      4.09600846e-02 1.41370520e-01 5.17057955e-01 3.39981645e-01
      1.14705279e-01 5.88029297e-03 5.22900581e-01 5.22900581e-01
      1.73597634e-01 4.50694282e-03 2.02175409e-01 4.77768660e-01
      4.77768660e-01 2.15203241e-02 1.35308057e-01 4.77768660e-01
      4.77768660e-01 1.50032446e-01 1.27076834e-01 4.83354628e-02
      1.36304557e-01 1.96791708e-01 1.14564626e-02 2.60117382e-01
      5.32634199e-01 5.32634199e-01 5.32634199e-01 5.35904229e-01
      5.35904229e-01 5.35904229e-01 2.29152203e-01 2.34767213e-01
      9.81869847e-02 3.45706530e-02 2.81192847e-02 1.17538318e-01
      6.80408552e-02 4.51894909e-01 4.51894909e-01 7.74028823e-02
      1.70030519e-02 4.09396231e-01 4.51894909e-01 4.51894909e-01
      1.16159776e-02 0. 5.12572750e-02 6.29099488e-01 6.29099488e-01
      1.20733798e-01 0. 8.08563270e-03 3.95928621e-01 1.67803138e-01
      3.44161779e-01 5.62525690e-02 1.18540183e-01 4.60827351e-01
      4.60827351e-01 1.01410754e-01 1.38305291e-03 4.60827351e-01
      4.60827351e-01 4.51787204e-01 4.51787204e-01 2.00392883e-02
      8.82586688e-02 4.51787204e-01 4.51787204e-01 1.70499936e-01
      4.25330661e-02 3.74125779e-01 1.28739879e-01 3.57140779e-01
      1.50801362e-02 0. 2.94881105e-01 6.14260852e-01 6.14260852e-01
      8.90408233e-02 0.</_>
    <_>
      6.92550719e-01 6.92550719e-01 9.74423438e-02 0. 3.83457635e-03
      4.72442061e-02 0. 0. 1.48632467e-01 5.68225682e-01 3.53817880e-01
      7.99971167e-03 0. 1.37000382e-01 4.69655514e-01 1.70902302e-03 0.
      5.53936839e-01 5.12757361e-01 6.22689873e-02 4.22973000e-03
      8.98278654e-02 5.12757361e-01 4.39565092e-01 8.49240925e-03
      2.94092651e-02 5.12757361e-01 4.66309339e-01 0. 8.17887262e-02
      4.03130770e-01 3.05121720e-01 5.91429062e-02 1.81833044e-01
      4.89287525e-01 4.89287525e-01 4.59568828e-01 4.59568828e-01
      4.59568828e-01 9.31328442e-03 2.45959926e-02 4.59568828e-01
      3.81469011e-01 5.26620261e-02 4.01481353e-02 5.28185010e-01
      2.98659652e-01 1.65556110e-02 8.12268467e-04 5.28185010e-01
      5.28185010e-01 2.49217644e-01 4.57323492e-02 6.41392246e-02
      3.68504524e-01 6.51869699e-02 1.65001795e-01 2.84756273e-01
      6.03838623e-01 6.03838623e-01 3.44929546e-02 2.46544573e-02
      1.20724007e-01 1.90003030e-02 4.17414337e-01 4.17414337e-01
      4.17414337e-01 3.11202496e-01 8.71484876e-02 4.17414337e-01
      4.17414337e-01 1.40902996e-01 1.62718224e-03 4.24442023e-01
      4.24442023e-01 4.24442023e-01 1.37834236e-01 1.77429780e-01
      4.24442023e-01 4.24442023e-01 2.11004153e-01 3.48158568e-01
      1.51107339e-02 5.44190686e-03 4.34493154e-01 3.28403056e-01
      3.23936641e-01 3.08303416e-01 4.34493154e-01 4.34493154e-01
      5.52444816e-01 5.52444816e-01 8.57969746e-02 1.54096887e-01
      1.31159574e-01 9.91459265e-02 2.46450491e-03 1.44054636e-01
      5.52444816e-01 4.54602718e-01 4.54602718e-01 3.80716264e-01
      7.95869064e-03 2.47344673e-02 4.54602718e-01 4.54602718e-01
      1.48038492e-01 3.56260911e-02 0. 7.58495042e-03 1.76201060e-01
      6.84122324e-01 6.84122324e-01 0. 2.23728474e-02 9.72163230e-02
      1.26759484e-01 1.23304121e-01 0. 1.03105063e-04 5.57361662e-01
      5.57361662e-01 1.95480101e-02 2.94686225e-03 2.16525689e-01
      5.57361662e-01 4.44698095e-01 7.19672814e-02 0. 4.44698095e-01
      4.44698095e-01 4.44698095e-01 0. 3.99582349e-02 4.44698095e-01
      3.31954658e-01 2.44490027e-01 0. 3.61747406e-02 5.23599803e-01
      5.23599803e-01 5.23599803e-01 1.43408366e-02 2.85884310e-02</_>
    <_>
      6.60956323e-01 6.60956323e-01 3.34494978e-01 0. 0. 0. 0. 0.
      8.82494375e-02 6.17150605e-01 6.17150605e-01 2.80112121e-02 0.
      1.54021472e-01 1.18529886e-01 7.82917365e-02 0. 4.32899565e-01
      4.61655587e-01 2.68723935e-01 2.92917178e-03 5.37456945e-02
      4.61655587e-01 4.61655587e-01 2.30817899e-01 1.20410249e-01
      4.61655587e-01 2.62648642e-01 1.62622123e-03 4.87866346e-03
      2.94683546e-01 4.52835143e-01 3.06720674e-01 3.61069560e-01
      4.52835143e-01 4.52835143e-01 3.05934578e-01 6.32806718e-01
      6.32806718e-01 2.02262048e-02 0. 1.65017292e-01 2.66860962e-01
      1.81374848e-02 3.71437729e-03 4.44200128e-01 4.44200128e-01
      6.69941455e-02 4.69524488e-02 4.44200128e-01 4.44200128e-01
      4.44200128e-01 3.72545719e-02 3.02234050e-02 2.03977540e-01
      9.39181373e-02 8.31575021e-02 2.14408264e-01 5.38398981e-01
      5.38398981e-01 5.38398981e-01 1.14767052e-01 9.22930017e-02
      2.89386004e-01 1.56403869e-01 7.21693113e-02 3.83569449e-01
      3.83569449e-01 3.83569449e-01 3.83569449e-01 3.83569449e-01
      3.83569449e-01 1.46061659e-03 4.86686766e-01 4.86686766e-01
      4.86686766e-01 1.06363870e-01 8.46759751e-02 3.73423278e-01
      3.55832398e-01 0. 2.67173558e-01 8.47075656e-02 2.92309701e-01
      4.02192354e-01 2.08853751e-01 3.75932902e-01 4.02192354e-01
      4.02192354e-01 4.02192354e-01 5.39474428e-01 5.39474428e-01
      5.03160469e-02 4.39506322e-02 2.67160773e-01 1.60201132e-01
      1.27475053e-01 6.13362454e-02 5.39474428e-01 4.07087713e-01
      4.07087713e-01 2.53123194e-02 1.20713422e-03 3.11217960e-02
      4.07087713e-01 4.07087713e-01 4.07087713e-01 4.07087713e-01 0.
      7.92766362e-02 5.65892160e-01 5.65892160e-01 5.65892160e-01
      2.37939674e-02 2.85838172e-02 1.61180973e-01 0. 1.89551517e-01
      7.04208715e-03 1.37212262e-01 5.34955680e-01 5.34955680e-01
      5.12116440e-02 3.96704450e-02 2.77708232e-01 5.34955680e-01
      4.88207012e-01 2.40230829e-01 1.62084475e-02 3.14651519e-01
      4.88207012e-01 4.88207012e-01 7.63786212e-02 1.53739555e-02
      3.42106134e-01 1.91924796e-01 1.47595033e-01 0. 7.71812815e-03
      5.57329953e-01 5.57329953e-01 5.57329953e-01 4.08505388e-02
      4.72948365e-02</_>
    <_>
      6.35562718e-01 6.35562718e-01 9.84083042e-02 6.23144954e-03
      1.18078828e-01 3.84115130e-01 2.52649514e-03 0. 1.20657146e-01
      4.67510313e-01 3.45164448e-01 7.50544059e-05 4.17607948e-02
      4.67510313e-01 4.67510313e-01 6.30714791e-03 1.20204119e-02
      4.67510313e-01 4.42954540e-01 9.77508072e-03 1.43113099e-02
      4.42954540e-01 4.42954540e-01 1.19294696e-01 0. 4.42954540e-01
      4.42954540e-01 7.97900409e-02 0. 5.72437346e-02 4.66770887e-01
      5.35021275e-02 0. 1.59191355e-01 6.07540548e-01 6.07540548e-01
      2.46376991e-01 4.84445095e-01 3.96339715e-01 9.35241282e-02
      2.53130287e-01 4.84445095e-01 4.84445095e-01 2.21752711e-02 0.
      1.85025126e-01 1.12131663e-01 7.60204915e-04 1.12426803e-01
      6.52872920e-01 6.52872920e-01 2.84905314e-01 1.64756011e-02
      1.02562979e-02 3.56619917e-02 3.94283384e-01 5.05742252e-01
      5.05742252e-01 5.05742252e-01 1.52700007e-01 0. 1.54913723e-01
      1.53546214e-01 1.76011566e-02 4.24340576e-01 4.24340576e-01
      4.24340576e-01 4.81393449e-02 9.85245481e-02 4.24340576e-01
      4.24340576e-01 2.88274288e-01 3.49573731e-01 3.11506748e-01
      3.57070953e-01 3.57070953e-01 3.57070953e-01 3.57070953e-01
      3.57070953e-01 1.10437304e-01 3.57070953e-01 6.18530929e-01
      1.55040950e-01 2.93782465e-02 1.90054476e-02 4.10466380e-02
      1.54059395e-01 3.27964932e-01 2.65369952e-01 6.18530929e-01
      6.18854702e-01 6.18854702e-01 1.41269773e-01 2.23873444e-02
      2.47808900e-02 4.19802547e-01 1.01685815e-01 0. 1.42169103e-01
      2.88173139e-01 5.40875375e-01 1.59262612e-01 2.60983650e-02
      4.92586847e-03 5.40875375e-01 5.40875375e-01 8.85746330e-02
      1.06759474e-03 1.54066980e-01 2.81956881e-01 4.69870538e-01
      4.69870538e-01 4.69870538e-01 9.13945260e-04 0. 9.46386755e-02
      4.69870538e-01 4.57469225e-01 6.26823977e-02 3.20393071e-02
      4.57469225e-01 4.57469225e-01 3.67293984e-01 5.23879519e-03
      1.35757864e-01 4.57469225e-01 4.88492310e-01 4.88492310e-01
      1.88688654e-02 4.32318076e-02 4.88492310e-01 4.88492310e-01
      1.19022191e-01 0. 1.55662477e-01 1.09846383e-01 1.84290811e-01 0.
      4.81576147e-03 1.77451253e-01 6.76625431e-01 6.76625431e-01
      7.72348139e-03 0.</_>
    <_>
      5.67710161e-01 5.67710161e-01 8.26974437e-02 0. 0. 1.98888723e-02
      5.65557517e-02 1.30436078e-01 5.67710161e-01 5.42774975e-01
      1.86802775e-01 5.45111531e-03 0. 0. 1.90805886e-02 2.74730116e-01
      5.42774975e-01 5.42774975e-01 6.78175151e-01 2.64125437e-01 0. 0.
      0. 0. 1.09896157e-02 5.91926426e-02 6.78175151e-01 6.26624167e-01
      3.11073214e-02 0. 0. 0. 0. 2.24788994e-01 3.96144331e-01
      6.26624167e-01 5.34677982e-01 5.34677982e-01 5.34677982e-01
      2.80598998e-02 1.01218745e-02 1.80134058e-01 2.61265069e-01
      9.18544382e-02 1.64267927e-01 3.98751736e-01 3.30985606e-01
      5.52553311e-03 9.08159069e-04 3.98751736e-01 3.98751736e-01
      3.02355468e-01 3.98751736e-01 3.98751736e-01 5.03503859e-01
      2.06527784e-01 1.69785153e-02 4.36263867e-02 5.03503859e-01
      5.03503859e-01 8.90881987e-04 2.13450305e-02 4.34880763e-01
      3.42756510e-01 3.42756510e-01 2.53057957e-01 3.42756510e-01
      3.42756510e-01 3.31907928e-01 3.42756510e-01 3.42756510e-01
      3.42756510e-01 8.20471868e-02 3.89340073e-01 4.84818131e-01
      4.84818131e-01 3.09665889e-01 3.11985701e-01 3.62621307e-01
      1.75602064e-01 1.05758041e-01 4.16028261e-01 4.28290442e-02
      5.58129549e-02 4.06184524e-01 4.16028261e-01 4.16028261e-01
      2.33950570e-01 2.80816436e-01 4.16028261e-01 4.43642676e-01
      4.43642676e-01 2.81072222e-02 1.03264593e-01 4.43642676e-01
      4.43642676e-01 4.55270289e-03 0. 4.43642676e-01 4.68377560e-01
      4.68377560e-01 9.83701721e-02 7.19924718e-02 2.73260623e-01
      4.68377560e-01 4.68377560e-01 1.65924519e-01 2.73824669e-02
      2.72503644e-02 5.91612840e-03 5.54863155e-01 5.78830719e-01
      5.78830719e-01 2.21158434e-02 7.24475160e-02 5.10268286e-02
      8.44855905e-02 2.13548034e-01 1.48089777e-03 3.56280953e-02
      6.33543074e-01 6.33543074e-01 1.80981718e-02 1.82830654e-02
      6.16007335e-02 3.73617917e-01 2.99691767e-01 1.04826666e-01
      1.55528234e-02 4.41551387e-01 5.51923037e-01 5.51923037e-01
      5.39726438e-03 0. 2.98676789e-01 1.52958080e-01 1.24940388e-01 0.
      0. 6.76879287e-01 6.76879287e-01 1.93060756e-01 1.78721119e-02
      1.77040026e-02</_>
    <_>
      6.99587166e-01 6.99587166e-01 7.99141005e-02 0. 0. 0.
      1.72499145e-04 3.13078694e-04 8.82359296e-02 6.24000549e-01
      4.34560090e-01 1.02420978e-03 1.47321625e-02 1.17391042e-01
      1.09333262e-01 7.40478700e-03 1.29084568e-02 6.24000549e-01
      5.62816262e-01 7.47677113e-04 4.39924598e-02 7.62299672e-02
      1.84381887e-01 4.84711714e-02 5.06350771e-04 5.62816262e-01
      5.62816262e-01 1.25407785e-01 4.78020171e-04 7.99086317e-03
      2.73570488e-03 0. 0. 1.16772346e-01 6.94131255e-01 6.94131255e-01
      4.95959133e-01 5.95037460e-01 5.95037460e-01 1.31647810e-01
      1.27967134e-01 6.05954975e-02 5.04703000e-02 3.87402647e-03
      1.78800675e-03 3.30795884e-01 3.22892487e-01 1.33100808e-01
      1.60103634e-01 4.19448048e-01 5.25198996e-01 5.25198996e-01
      6.69106543e-02 7.50913545e-02 7.22544491e-02 4.06936973e-01
      4.06936973e-01 4.06936973e-01 4.06936973e-01 4.06936973e-01
      1.91755489e-01 1.23445094e-01 3.32741290e-01 1.29343551e-02
      3.90868112e-02 1.39131606e-01 7.29495566e-03 1.17681520e-02
      6.70404285e-02 5.68209827e-01 5.68209827e-01 5.68209827e-01
      8.47046748e-02 4.74067926e-01 4.74067926e-01 4.74067926e-01
      4.74067926e-01 2.03576878e-01 2.96480209e-02 1.33607134e-01
      1.70161337e-01 3.85564238e-01 2.81651288e-01 4.00059894e-02
      1.68337271e-01 3.85564238e-01 3.85564238e-01 3.85564238e-01
      3.78924578e-01 3.85564238e-01 4.45479691e-01 4.45479691e-01
      4.45479691e-01 5.97033277e-02 4.45479691e-01 3.51131022e-01
      2.18987703e-01 6.72334954e-02 1.49693266e-01 0. 4.09782492e-02
      5.23479059e-02 1.61874550e-03 3.39114159e-01 6.25804365e-01
      6.25804365e-01 3.01776588e-01 0. 2.13889293e-02 6.96106255e-02
      3.10504019e-01 6.66963756e-01 6.66963756e-01 0. 0. 1.94083359e-02
      3.95936966e-02 1.66620001e-01 3.39008798e-03 0. 6.73779607e-01
      6.81846917e-01 1.61892757e-01 0. 2.41431277e-02 1.40475005e-01
      1.06837653e-01 2.26294175e-02 2.65003269e-04 1.95402250e-01
      6.86471581e-01 6.86471581e-01 1.44896675e-02 1.19957922e-03
      1.84560586e-02 0. 1.21488911e-03 8.42439476e-05 4.31761466e-04
      5.73750198e-01 5.73750198e-01 5.73750198e-01 8.18610191e-02 0.</_>
    <_>
      4.80505615e-01 4.80505615e-01 2.67690450e-01 0. 0. 0. 0.
      4.80505615e-01 4.80505615e-01 6.35046065e-01 6.35046065e-01
      1.31162629e-02 0. 7.25200400e-02 3.81055661e-02 0. 1.68376025e-02
      4.24176872e-01 6.14195585e-01 6.07643947e-02 6.64449326e-05
      4.66557927e-02 2.50809759e-01 5.27390167e-02 1.98393688e-03
      4.09676820e-01 6.14195585e-01 3.86276901e-01 0. 1.61501215e-04
      6.12154827e-02 4.85254638e-02 0. 1.27922326e-01 6.41062975e-01
      6.41062975e-01 4.21969801e-01 4.21969801e-01 4.21969801e-01
      3.24388176e-01 0. 5.17445384e-04 1.62563380e-02 4.21969801e-01
      4.21969801e-01 3.87097865e-01 3.87097865e-01 2.66866475e-01
      6.95204455e-03 3.87097865e-01 3.87097865e-01 3.87097865e-01
      3.87097865e-01 1.60618544e-01 4.08441603e-01 2.56685793e-01
      2.84402132e-01 4.08441603e-01 4.08441603e-01 4.08441603e-01
      9.15460214e-02 2.08587289e-01 3.60499680e-01 4.67719845e-02
      2.25587815e-01 4.49145049e-01 3.48107070e-01 1.18212841e-01
      1.89293101e-02 4.49145049e-01 4.49145049e-01 4.49145049e-01
      6.26710132e-02 8.67795199e-02 6.28828824e-01 6.28828824e-01
      1.79665074e-01 3.92128760e-03 1.62318218e-02 1.23545498e-01
      3.78932595e-01 3.31421465e-01 2.24599577e-02 1.61651880e-01
      4.08357471e-01 4.08357471e-01 1.60204455e-01 4.08357471e-01
      4.08357471e-01 4.08357471e-01 4.24916357e-01 4.24916357e-01
      1.15866594e-01 1.97452307e-01 4.24916357e-01 4.06375945e-01
      9.97194126e-02 2.14573607e-01 4.24916357e-01 2.46786222e-01
      4.95794863e-01 2.81103253e-01 3.38948369e-02 1.26944184e-01
      4.95794863e-01 4.95794863e-01 3.16778362e-01 8.71294923e-03 0.
      1.25327054e-02 2.32667685e-01 6.85143948e-01 6.85143948e-01
      4.29877313e-04 3.44977225e-03 3.51292128e-03 1.17746655e-04
      6.07713871e-02 0. 3.37524479e-03 6.97218537e-01 6.97218537e-01
      6.38507828e-02 6.33839611e-03 4.82255593e-02 1.03272744e-01
      1.87477350e-01 1.31925568e-02 0. 5.61919868e-01 5.61919868e-01
      5.61919868e-01 8.94969970e-04 4.92005097e-03 1.08536020e-01
      3.74134034e-02 1.53838610e-02 0. 1.40249962e-02 6.54523909e-01
      6.54523909e-01 3.66637617e-01 1.97357219e-02 4.08258522e-03</_>
    <_>
      6.96513116e-01 6.96513116e-01 1.30341113e-01 0. 1.33153498e-02
      1.36798359e-02 2.22727694e-02 3.06047150e-03 7.01942071e-02
      5.36337495e-01 5.36337495e-01 3.45636941e-02 0. 2.30106458e-01
      5.36337495e-01 1.53200045e-01 5.65030612e-02 2.25529566e-01
      4.11807030e-01 7.74628893e-02 8.08262974e-02 4.11807030e-01
      4.11807030e-01 4.11807030e-01 2.40940824e-02 3.67215216e-01
      4.11807030e-01 2.90335678e-02 1.77800341e-03 1.62257567e-01
      4.66570497e-01 9.55504104e-02 5.68080088e-03 1.07868686e-01
      6.03454709e-01 6.03454709e-01 4.93797809e-01 6.97171390e-01
      4.81541693e-01 3.59930098e-02 7.27018341e-02 4.10013199e-02
      1.11795634e-01 8.13086703e-02 6.24698848e-02 2.69000292e-01
      4.54818696e-01 2.47084126e-02 1.13182263e-02 1.90446943e-01
      4.54818696e-01 4.54818696e-01 4.54818696e-01 2.42171392e-01
      8.27002991e-03 1.22824229e-01 4.02436227e-01 4.02436227e-01
      4.02436227e-01 4.02436227e-01 4.02436227e-01 4.02436227e-01
      9.53735635e-02 0. 2.15208322e-01 4.78833824e-01 4.78833824e-01
      2.36954261e-02 4.28255508e-03 4.78833824e-01 4.78833824e-01
      1.76623121e-01 2.94496212e-02 5.03044307e-01 5.03044307e-01
      5.03044307e-01 3.43549639e-01 2.07035676e-01 1.84399977e-01
      1.93962842e-01 4.93240207e-02 6.76291883e-02 2.39540897e-02
      3.91613580e-02 3.46449107e-01 2.64811814e-01 4.46850985e-01
      4.46850985e-01 4.46850985e-01 4.46850985e-01 4.57359135e-01
      4.57359135e-01 4.30708945e-01 2.40798648e-02 4.22697403e-02
      2.48185098e-01 1.36381492e-01 3.15954119e-01 4.57359135e-01
      2.46788114e-01 4.72350359e-01 4.72350359e-01 3.28866094e-02
      5.80756040e-03 4.72350359e-01 4.72350359e-01 2.01702237e-01
      1.09175844e-02 0. 6.59749061e-02 5.17846107e-01 5.17846107e-01
      5.17846107e-01 4.24466014e-01 4.65266146e-02 5.83634973e-02
      1.54671120e-02 1.54036969e-01 2.97666062e-03 1.71624810e-01
      4.81969178e-01 4.81969178e-01 1.09056622e-01 3.04014049e-02
      4.81969178e-01 4.81969178e-01 4.29872960e-01 2.39921778e-01
      2.18556169e-02 4.29872960e-01 4.29872960e-01 4.29872960e-01
      3.58066186e-02 1.11489668e-01 4.29872960e-01 3.05912465e-01
      2.81439453e-01 2.66694967e-02 1.14685029e-03 2.61925668e-01
      6.12358987e-01 6.12358987e-01 3.42283696e-02 2.52789743e-02</_>
    <_>
      6.56912744e-01 6.56912744e-01 1.84582934e-01 2.26110290e-03
      2.01604776e-02 0. 0. 0. 3.09662014e-01 6.59696281e-01
      3.08525145e-01 3.51817459e-02 7.92079140e-03 1.59467861e-01
      3.31275016e-02 0. 0. 6.59696281e-01 5.63473761e-01 9.10976902e-02
      3.73344906e-02 1.18109565e-02 1.78909421e-01 4.94413916e-03 0.
      5.63473761e-01 5.63473761e-01 1.37059569e-01 0. 0. 4.74192109e-03
      4.04953770e-02 0. 1.39317557e-01 6.90380752e-01 6.90380752e-01
      4.05782700e-01 4.05782700e-01 4.05782700e-01 4.05782700e-01
      4.05782700e-01 4.05782700e-01 0. 2.67850664e-02 8.52714404e-02
      5.40266693e-01 1.26791522e-01 9.76324175e-03 1.27442703e-01
      5.40266693e-01 5.40266693e-01 0. 1.47098238e-02 2.93787211e-01
      2.59172082e-01 3.92807692e-01 3.92807692e-01 3.83486927e-01
      3.92807692e-01 9.49471295e-02 3.65955420e-02 3.92807692e-01
      3.92807692e-01 1.75624378e-02 2.03375369e-01 2.28840336e-01
      7.10236207e-02 7.58992508e-02 5.88240027e-02 5.75253844e-01
      5.75253844e-01 4.73411739e-01 3.58869314e-01 4.23931122e-01
      4.23931122e-01 4.23931122e-01 2.27804407e-01 1.66109473e-01 0.
      2.61955023e-01 4.23931122e-01 4.99834925e-01 2.07907125e-01
      6.66899830e-02 1.54999390e-01 4.99834925e-01 3.64959657e-01 0.
      2.01518640e-01 4.99834925e-01 4.87460583e-01 4.87460583e-01
      1.35432571e-01 5.39927222e-02 4.87460583e-01 4.87460583e-01
      1.25396475e-01 1.04613742e-02 8.70017037e-02 3.91354896e-02
      2.27785692e-01 6.49383664e-02 7.20049441e-03 1.03073500e-01
      6.15356982e-01 6.15356982e-01 4.10107642e-01 5.32078743e-03
      2.95972656e-02 1.62239462e-01 5.59509695e-01 5.59509695e-01
      5.59509695e-01 0. 0. 1.93013195e-02 1.66401356e-01 3.14718097e-01
      2.26948932e-02 4.73914929e-02 5.33166468e-01 5.33166468e-01
      5.33166468e-01 0. 1.18941935e-02 1.99814841e-01 1.79628819e-01
      4.35384959e-02 0. 1.54869398e-04 6.92118943e-01 6.92118943e-01
      2.55776513e-02 2.29086517e-03 1.45622315e-02 4.29648999e-03
      2.59603118e-03 0. 1.38326490e-04 6.17392242e-01 6.17392242e-01
      4.79525477e-01 3.89777981e-02 0.</_>
    <_>
      6.97125018e-01 6.97125018e-01 1.20933458e-01 0. 0. 3.35515337e-03
      5.27548604e-03 0. 8.00649896e-02 5.60515642e-01 5.60515642e-01
      9.88550391e-03 4.19401526e-02 1.84218511e-01 1.25960827e-01
      1.18922368e-02 8.27451702e-03 5.60515642e-01 5.69023669e-01
      7.56264478e-03 2.95620672e-02 7.64424950e-02 1.25773966e-01
      1.88595764e-02 2.17106054e-03 5.69023669e-01 5.69023669e-01
      1.16594573e-02 3.60185833e-04 1.08055747e-03 0. 0. 6.51355585e-05
      2.70327419e-01 6.78238511e-01 6.78238511e-01 3.98949146e-01
      5.77983022e-01 5.77983022e-01 1.73790932e-01 1.50858417e-01
      2.92379975e-01 1.68795213e-01 0. 0. 2.34754786e-01 3.28700900e-01
      2.95173585e-01 3.78227919e-01 4.43844974e-01 4.49661732e-01
      4.49661732e-01 1.55138485e-02 2.32393239e-02 3.27712037e-02
      8.15225914e-02 4.75884348e-01 4.75884348e-01 3.09714854e-01
      2.44493425e-01 2.53015518e-01 4.75884348e-01 2.97341764e-01
      5.75496466e-04 8.18325207e-03 7.83858076e-02 1.45808747e-03
      3.14241188e-04 4.08089645e-02 6.80175126e-01 6.80175126e-01
      2.45059907e-01 1.28564179e-01 3.71290773e-01 3.71290773e-01
      3.71290773e-01 3.36037755e-01 3.71290773e-01 1.99246943e-01
      3.71290773e-01 3.71290773e-01 4.22895879e-01 2.44330004e-01
      2.34497488e-01 1.47901520e-01 1.55846238e-01 4.22895879e-01
      4.22895879e-01 3.45778376e-01 4.22895879e-01 4.74839032e-01
      4.74839032e-01 4.74839032e-01 2.12865382e-01 1.56794116e-02
      1.97845593e-01 4.74839032e-01 5.26648536e-02 7.67776147e-02
      2.68756499e-04 5.41869476e-02 1.52870178e-01 3.73449031e-04
      4.80387127e-03 5.89019001e-01 6.32433116e-01 4.69512492e-01 0.
      4.23554182e-02 1.26868859e-01 5.51552951e-01 5.51552951e-01
      5.25476396e-01 3.44304158e-03 9.95522458e-03 1.15322851e-01
      2.80437976e-01 4.89069611e-01 6.69017360e-02 2.85116397e-02
      4.89069611e-01 4.89069611e-01 9.82811674e-02 7.81534612e-03
      1.52806863e-01 4.89069611e-01 5.21726251e-01 3.25813293e-01
      9.80382785e-02 7.05657378e-02 5.21726251e-01 5.21726251e-01
      2.15619087e-01 6.11944962e-03 1.04500107e-01 6.92626520e-04
      2.52481755e-02 2.43389774e-02 0. 1.55388206e-01 6.86175764e-01
      6.86175764e-01 1.61554664e-01 0.</_>
    <_>
      6.75809383e-01 6.75809383e-01 2.44264737e-01 0. 0. 0. 0.
      7.91775528e-05 1.41955599e-01 6.69013977e-01 6.69013977e-01
      9.19810217e-03 6.16698468e-04 7.05786142e-03 3.19370558e-03 0.
      1.38507734e-04 3.13075989e-01 5.89914501e-01 8.30655545e-02
      1.25372142e-03 1.51390620e-02 1.08284727e-01 1.97429955e-02
      2.83014346e-02 5.27318120e-01 5.89914501e-01 6.93223551e-02
      7.21909804e-04 1.33833510e-03 4.87971399e-03 1.23915086e-02
      4.72498155e-04 4.10012573e-01 6.40511274e-01 6.40511274e-01
      5.51984310e-01 5.51984310e-01 5.51984310e-01 2.72815287e-01 0.
      8.71566683e-03 3.13731320e-02 4.39684512e-03 7.01420456e-02
      4.44254965e-01 4.44254965e-01 4.91862819e-02 3.46591324e-02
      4.44254965e-01 4.44254965e-01 4.44254965e-01 4.06499878e-02
      5.89664876e-02 9.35066044e-02 4.55838412e-01 4.55838412e-01
      3.46890271e-01 4.55838412e-01 4.55838412e-01 1.28152058e-01
      1.27836213e-01 4.95061688e-02 2.70666764e-03 1.67582557e-01
      2.16590762e-01 5.41177429e-02 7.08239898e-02 3.23554687e-03
      6.74132764e-01 6.74132764e-01 3.74432877e-02 6.98595420e-02
      1.13143258e-01 6.91312969e-01 6.91312969e-01 0. 1.32936221e-02
      1.24912448e-01 6.00952879e-02 1.40972557e-02 3.81915003e-01
      1.83565736e-01 2.05631509e-01 3.89598280e-01 1.23830244e-01
      3.89598280e-01 3.89598280e-01 3.89598280e-01 3.89598280e-01
      4.64063078e-01 4.64063078e-01 4.61893052e-01 1.06944978e-01
      1.52249172e-01 3.34592581e-01 2.58512050e-01 1.23600997e-01
      3.50193530e-01 1.33866433e-03 1.67225257e-01 9.40031484e-02
      3.43514374e-03 3.16358474e-03 6.56317294e-01 6.56317294e-01
      3.08412552e-01 8.63077548e-06 0. 1.96231827e-02 7.03499973e-01
      7.03499973e-01 5.13097346e-02 4.77669644e-04 5.13082184e-03
      9.91242658e-03 3.26234568e-03 1.33171424e-01 2.32792888e-02
      3.75673980e-01 6.17141664e-01 6.17141664e-01 1.35605352e-03
      6.08912203e-03 8.42629746e-02 2.56054461e-01 2.34372079e-01
      1.18275948e-01 1.19554326e-02 4.88884360e-01 4.88884360e-01
      4.88884360e-01 4.30508286e-01 1.47714941e-02 1.53217435e-01
      1.27670052e-03 7.21091870e-03 3.39998258e-03 4.58223140e-03
      1.91193074e-01 6.89270675e-01 6.89270675e-01 7.93107376e-02
      5.99895757e-05</_>
    <_>
      6.46472812e-01 6.46472812e-01 1.34278607e-05 0. 0. 0. 0. 0.
      3.97104234e-01 6.06082380e-01 5.09192228e-01 1.02140200e-06 0. 0.
      0. 0. 0. 6.06082380e-01 6.77445173e-01 2.62679253e-02 0. 0.
      4.50854329e-03 4.30398621e-04 0. 2.73244470e-01 6.77445173e-01
      4.46936369e-01 0. 0. 0. 7.26975675e-04 6.93992115e-05
      7.89365321e-02 6.27594709e-01 6.27594709e-01 6.03855073e-01
      6.03855073e-01 4.47445929e-01 2.47855961e-01 1.55895865e-02
      5.64552320e-04 0. 7.29430991e-04 5.29567339e-02 5.78257203e-01
      5.78257203e-01 1.46509893e-02 3.28094214e-02 2.02801973e-01
      3.19954455e-01 1.48785397e-01 7.35984743e-02 3.91303688e-01
      3.85089636e-01 3.81461322e-01 2.88233280e-01 1.55739844e-01
      3.85089636e-01 3.85089636e-01 4.28549461e-02 3.85089636e-01
      3.85089636e-01 3.40361185e-02 1.85039025e-02 3.06960624e-02
      5.07245772e-03 9.40608419e-03 9.64729115e-02 5.72253227e-01
      5.72253227e-01 5.72253227e-01 1.54840574e-01 1.86497122e-01
      5.56654274e-01 6.15591884e-01 4.96261120e-01 1.26457738e-03 0.
      7.53401779e-04 1.46085199e-03 1.92444712e-01 1.04371384e-01
      2.00935937e-02 5.61560392e-01 5.61560392e-01 2.58947074e-01
      3.59634936e-01 2.04812184e-01 2.77526975e-01 3.89712870e-01
      4.09867913e-01 1.83719724e-01 3.55223179e-01 4.09867913e-01
      4.09867913e-01 3.24615508e-01 6.61455020e-02 2.65268266e-01
      1.45651971e-03 3.09586842e-02 2.43497472e-02 1.89951214e-03
      1.76628023e-01 6.74601018e-01 6.74601018e-01 2.23599195e-01
      1.84682179e-02 0. 0. 6.11911826e-02 7.03290462e-01 7.03290462e-01
      0. 0. 0. 0. 1.77032184e-02 1.15906575e-03 9.60535090e-03
      7.04059064e-01 7.04059064e-01 1.93234403e-02 0. 0. 2.81648207e-02
      2.04538014e-02 3.63732153e-03 2.65285186e-03 4.90160048e-01
      6.09099269e-01 6.09099269e-01 1.04979046e-01 4.64232697e-04
      1.40797021e-02 8.30982826e-05 5.47412492e-04 0. 1.75764799e-04
      5.75687826e-01 5.75687826e-01 5.75687826e-01 1.25786872e-03 0.</_>
    <_>
      6.22262657e-01 6.22262657e-01 4.63654965e-01 0. 0. 0. 0. 0.
      6.62537590e-02 5.66999793e-01 5.66999793e-01 2.60234494e-02 0.
      1.23832151e-01 1.17728896e-01 0. 0. 5.66999793e-01 5.36838710e-01
      7.11739063e-03 1.49117038e-02 7.75082111e-02 3.43739003e-01
      6.98907226e-02 2.70131696e-02 5.36838710e-01 5.36838710e-01
      5.36079220e-02 0. 1.74046140e-02 4.28574681e-02 3.69637385e-02 0.
      4.39507276e-01 6.30143702e-01 6.30143702e-01 4.52488244e-01
      6.24848306e-01 6.24848306e-01 4.05222401e-02 6.72032184e-04
      6.93814736e-03 7.54582956e-02 1.99198425e-02 1.90661363e-02
      3.99443597e-01 3.99443597e-01 1.92731693e-01 3.11623700e-03
      3.72139275e-01 3.99443597e-01 3.99443597e-01 3.31423014e-01
      2.68895239e-01 3.48245829e-01 3.48245829e-01 3.48245829e-01
      3.48245829e-01 3.48245829e-01 3.48245829e-01 1.62232295e-01
      3.48245829e-01 3.48245829e-01 1.40009187e-02 1.57586604e-01
      3.16373557e-01 1.01234391e-01 3.28379832e-02 1.83196869e-02
      6.34072959e-01 6.34072959e-01 2.29756653e-01 1.37042060e-01
      5.31076610e-01 5.31076610e-01 5.31076610e-01 3.58012766e-01
      5.13647741e-04 3.12926173e-02 2.51801945e-02 1.41151203e-03
      3.71389210e-01 1.23856649e-01 1.19553700e-01 4.22326416e-01
      4.22326416e-01 1.48195073e-01 3.04659605e-01 4.22326416e-01
      4.22326416e-01 4.02703345e-01 4.02703345e-01 1.41574085e-01
      2.25516587e-01 4.02703345e-01 4.02703345e-01 3.24939698e-01
      9.29534435e-02 4.02703345e-01 4.46714535e-02 1.45602643e-01
      6.41041547e-02 8.16545077e-03 8.55626687e-02 5.99597156e-01
      5.99597156e-01 4.90101606e-01 9.34908260e-03 0. 6.77318126e-02
      4.83834714e-01 6.14484012e-01 6.14484012e-01 0. 0. 0. 0.
      1.29667986e-02 1.30817806e-03 1.60662364e-02 7.03761756e-01
      7.03761756e-01 4.19898257e-02 0. 0. 1.49125718e-02 2.31370348e-02
      0. 8.46436014e-04 5.74064016e-01 5.74064016e-01 5.74064016e-01
      6.59786239e-02 4.59477771e-03 2.66216248e-02 2.58677499e-03 0.
      7.39074021e-04 5.23607843e-02 5.73164880e-01 5.73164880e-01
      5.73164880e-01 7.72851557e-02 9.50827147e-04</_>
    <_>
      6.10104501e-01 6.10104501e-01 4.90721524e-01 0. 0. 3.50988586e-03
      4.22579562e-03 0. 9.28200036e-02 6.80202007e-01 5.25333047e-01
      2.03503333e-02 1.51772900e-02 1.59307837e-01 4.20351624e-02
      7.79750897e-03 1.20717017e-02 4.75986421e-01 5.65663040e-01
      9.19343010e-02 1.33501189e-05 4.85476777e-02 1.53517440e-01
      6.75846264e-03 2.26965593e-03 5.65663040e-01 5.65663040e-01
      7.03124031e-02 0. 0. 4.70707612e-03 8.22712667e-03 2.06875135e-04
      2.04753786e-01 6.87813878e-01 6.87813878e-01 2.02779785e-01
      6.51759803e-01 6.51759803e-01 2.57747978e-01 2.01543234e-03
      3.58465724e-02 1.77375227e-01 6.00496344e-02 8.36176798e-04
      3.83917511e-01 3.83917511e-01 2.03644454e-01 2.16456547e-01
      3.83917511e-01 3.83917511e-01 3.83917511e-01 3.83917511e-01
      1.53245151e-01 2.86251068e-01 2.72300422e-01 3.66555125e-01
      4.11386311e-01 4.11386311e-01 1.47615373e-01 8.18258822e-02
      4.11386311e-01 4.11386311e-01 1.38284918e-02 7.84279108e-02
      2.29405195e-01 1.59665272e-01 3.57600227e-02 3.49732843e-04
      6.50261104e-01 6.50261104e-01 2.49175057e-01 1.62730515e-01
      5.62488914e-01 5.62488914e-01 5.62488914e-01 9.80025008e-02
      1.24903629e-02 6.24963418e-02 7.10939839e-02 0. 3.33445758e-01
      3.79316717e-01 3.69262755e-01 2.24180803e-01 3.79316717e-01
      1.69455722e-01 3.06875229e-01 3.79316717e-01 3.79316717e-01
      4.42190886e-01 4.42190886e-01 2.82041192e-01 3.12311798e-01
      1.96923509e-01 2.93494731e-01 3.00292432e-01 1.29634663e-01
      4.42190886e-01 8.97901803e-02 1.46608949e-01 1.29383281e-01
      2.51051262e-02 6.97831251e-03 5.82667351e-01 5.82667351e-01
      5.17632723e-01 1.61318928e-02 3.40671912e-02 3.73913735e-01
      5.33059895e-01 5.33059895e-01 5.33059895e-01 3.52991857e-02 0. 0.
      0. 5.11345565e-02 6.68375790e-02 1.97008193e-01 6.74078047e-01
      6.74078047e-01 1.57173187e-01 3.72393196e-03 3.07800099e-02
      1.13795117e-01 8.52675587e-02 4.24558409e-02 3.26017328e-02
      5.12685597e-01 5.87373376e-01 5.87373376e-01 1.64782181e-01
      5.34339435e-03 6.28952980e-02 7.41969468e-03 2.26455777e-05 0. 0.
      3.16503108e-01 6.65574610e-01 6.65574610e-01 8.45138952e-02
      2.09287042e-03</_>
    <_>
      6.93451941e-01 6.93451941e-01 1.74283296e-01 0. 0. 4.14902548e-04
      6.01553693e-05 0. 3.08498330e-02 5.57919919e-01 5.57919919e-01
      1.88317336e-02 1.28572737e-03 1.45851057e-02 2.07876749e-02
      3.26744001e-03 2.44116336e-01 5.57919919e-01 5.52594066e-01
      1.05628140e-01 7.65673956e-03 5.07214069e-02 2.43349925e-01
      7.33612999e-02 3.38964886e-03 5.52594066e-01 5.52594066e-01
      1.92942113e-01 0. 1.61554310e-02 3.56531441e-02 6.34305701e-02
      2.15135026e-03 1.40172794e-01 6.82185709e-01 6.82185709e-01
      2.13725939e-01 6.88162148e-01 6.88162148e-01 7.44685647e-04
      2.00459640e-03 3.78249446e-03 1.65258851e-02 5.02018863e-03 0.
      3.16789538e-01 3.97429079e-01 7.07554743e-02 1.12858806e-02
      3.97429079e-01 3.97429079e-01 3.97429079e-01 3.97429079e-01
      3.17475945e-01 2.73812711e-01 2.43492112e-01 3.98969084e-01
      3.98969084e-01 3.98969084e-01 3.98969084e-01 2.48916328e-01
      2.86330462e-01 2.84785211e-01 2.59039924e-02 1.60574585e-01
      5.36156297e-01 1.96833625e-01 9.91410464e-02 4.51149717e-02
      5.36156297e-01 5.36156297e-01 2.34929517e-01 4.54844529e-04
      4.98712629e-01 4.98712629e-01 4.98712629e-01 4.98712629e-01
      5.85969351e-03 9.13576875e-03 6.62978645e-03 0. 1.00953162e-01
      4.05680761e-02 3.63405466e-01 3.99347484e-01 3.99347484e-01
      2.33918130e-01 3.99347484e-01 3.99347484e-01 3.99347484e-01
      3.97417367e-01 3.97417367e-01 2.80788004e-01 6.13658465e-02
      3.48710805e-01 3.97417367e-01 1.46415457e-01 3.72321308e-01
      3.97417367e-01 2.58788556e-01 3.23683351e-01 3.72388750e-01
      1.36971800e-02 4.07335386e-02 5.35456657e-01 5.35456657e-01
      3.29324216e-01 2.25340072e-02 0. 2.14267522e-02 5.75555742e-01
      5.75555742e-01 5.75555742e-01 5.41606161e-04 5.05295902e-05 0. 0.
      5.78043610e-03 3.64749227e-04 4.98583466e-01 4.98583466e-01
      4.98583466e-01 4.98583466e-01 4.78464644e-03 3.18232179e-03
      2.47377474e-02 1.00912213e-01 2.40901462e-03 0. 5.46874464e-01
      5.80058277e-01 5.80058277e-01 5.50729185e-02 2.89108697e-03
      9.47128460e-02 2.44476106e-02 4.33437619e-03 0. 0. 5.77636421e-01
      5.77636421e-01 5.71160913e-01 5.50116086e-03 5.72618470e-03</_>
    <_>
      6.78103983e-01 6.78103983e-01 1.49735242e-01 0. 0. 1.48501340e-02
      9.80588142e-04 0. 2.25695252e-01 5.63756526e-01 5.63756526e-01
      1.84629075e-02 2.73702503e-03 1.65486619e-01 1.73938602e-01
      1.43326940e-02 1.21270776e-01 5.34627795e-01 5.20324171e-01
      1.59247458e-01 3.07591856e-02 1.85674563e-01 2.91736394e-01
      1.89455405e-01 2.84146462e-02 5.20324171e-01 5.20324171e-01
      1.50581032e-01 1.16004087e-02 2.65877899e-02 8.62515122e-02
      3.93045358e-02 0. 4.47407961e-01 6.16914213e-01 6.16914213e-01
      5.13787627e-01 5.13787627e-01 5.13787627e-01 9.50404555e-02 0.
      3.34303916e-01 2.84933567e-01 2.89237890e-02 1.09642921e-02
      4.46350068e-01 4.46350068e-01 5.99159934e-02 5.97536704e-03
      4.46350068e-01 4.46350068e-01 3.67930174e-01 6.51781186e-02
      2.35333145e-01 3.62332582e-01 3.18218142e-01 3.62332582e-01
      3.62332582e-01 3.62332582e-01 3.62332582e-01 8.37862790e-02
      3.16840112e-01 3.62332582e-01 3.88338827e-02 1.71103835e-01
      5.09111404e-01 1.93837211e-01 3.06186639e-02 0. 5.51061451e-01
      5.51061451e-01 2.42219061e-01 9.14849192e-02 2.85781026e-01
      5.46820343e-01 5.46820343e-01 3.05701066e-02 1.38449177e-01
      4.26547229e-01 1.84237376e-01 2.65490741e-01 3.45698088e-01
      3.45698088e-01 3.45698088e-01 2.24122003e-01 3.45698088e-01
      3.45698088e-01 3.45698088e-01 3.31308305e-01 3.45698088e-01
      3.79688829e-01 3.79688829e-01 3.79688829e-01 2.62473553e-01
      3.79688829e-01 3.79688829e-01 2.35824570e-01 8.19730088e-02
      3.79688829e-01 1.05298162e-01 1.72179058e-01 1.54133379e-01
      9.87346936e-03 6.33578151e-02 5.76239526e-01 5.76239526e-01
      5.06129086e-01 7.33017251e-02 3.64766121e-02 9.27560031e-02
      5.68634927e-01 5.68634927e-01 5.68634927e-01 1.10329852e-01 0.
      6.73981057e-03 4.61793840e-02 8.67792815e-02 1.19035672e-02
      2.34406352e-01 5.32313228e-01 5.32313228e-01 5.32313228e-01
      1.35010213e-01 7.22717494e-02 2.41954878e-01 4.76502851e-02
      1.37353698e-02 3.19296271e-01 3.92502308e-01 5.95332086e-01
      5.95332086e-01 8.76257122e-02 2.45943926e-02 1.35883868e-01
      4.63552447e-03 1.11513317e-03 5.93958376e-03 5.91284316e-03
      5.74822605e-01 5.74822605e-01 5.74822605e-01 5.37241250e-02
      4.22477024e-03</_>
    <_>
      6.74122334e-01 2.89109945e-01 2.83495001e-02 0. 0. 0. 0. 0.
      6.74122334e-01 6.69822276e-01 3.09821486e-01 0. 0. 0. 0. 0. 0.
      6.69822276e-01 6.84746265e-01 2.74556335e-02 0. 0. 0. 0. 0.
      2.33785599e-01 6.84746265e-01 6.70429885e-01 0. 0. 0. 0. 0.
      1.07581347e-01 2.87716508e-01 6.70429885e-01 4.71161336e-01
      4.71161336e-01 4.22859341e-01 3.75684917e-01 9.67771262e-02 0. 0.
      0. 4.71161336e-01 6.45280063e-01 4.89735007e-01 0. 4.95367199e-02
      2.06979781e-01 1.53501168e-01 1.06018268e-01 1.42465413e-01
      4.86762345e-01 5.53172648e-01 2.40159824e-01 5.96910045e-02
      2.05857441e-01 4.54469353e-01 1.46586329e-01 2.17560083e-02
      2.24400684e-01 5.53172648e-01 2.95083761e-01 4.70781885e-02
      6.73122481e-02 5.10197133e-02 2.36161817e-02 1.16499342e-01
      5.42839587e-01 5.42839587e-01 5.42839587e-01 1.78750828e-01
      1.37791991e-01 4.36661899e-01 6.00095809e-01 6.00095809e-01 0. 0.
      0. 1.79348677e-01 2.28794485e-01 3.73735987e-02 0. 6.56758726e-01
      6.56758726e-01 1.36583775e-01 1.24755718e-01 1.37655824e-01
      1.54490128e-01 2.55907685e-01 1.89746380e-01 3.94529849e-02
      5.13992548e-01 5.13992548e-01 5.13992548e-01 2.15650517e-02
      7.00907409e-02 3.06390435e-01 2.71209516e-02 3.59291807e-02
      4.98122983e-02 5.38455993e-02 5.32082021e-01 5.32082021e-01
      5.32082021e-01 3.65868151e-01 6.39211461e-02 0. 0. 0.
      7.04615593e-01 7.04615593e-01 0. 0. 0. 0. 0. 0. 0. 6.98357105e-01
      6.98357105e-01 1.32753298e-01 0. 0. 0. 0. 0. 0. 5.75688422e-01
      5.75688422e-01 5.75688422e-01 0. 0. 0. 0. 0. 0. 7.87439123e-02
      6.98185623e-01 6.98185623e-01 1.09102413e-01 0. 0.</_>
    <_>
      6.87408388e-01 6.87408388e-01 2.15320349e-01 0. 0. 4.76395915e-04
      7.57269809e-05 0. 4.14009243e-02 6.25550807e-01 6.25550807e-01
      4.16458175e-02 6.63499022e-03 1.46063358e-01 2.15415850e-01
      1.30990213e-02 3.80298607e-02 3.74155015e-01 4.20672983e-01
      1.22008532e-01 2.52436716e-02 1.93798348e-01 4.31498110e-01
      2.01257110e-01 3.35577838e-02 5.18149257e-01 5.18149257e-01
      8.34652968e-03 0. 2.22777221e-02 6.80022165e-02 2.94649135e-02
      1.28724072e-02 3.10434908e-01 6.67361856e-01 6.67361856e-01
      5.01757145e-01 5.81802666e-01 5.81802666e-01 1.46801397e-01
      2.54755747e-03 1.91172853e-01 7.97240213e-02 3.09118908e-02
      5.09856502e-03 3.25589478e-01 5.22161663e-01 1.23247601e-01
      4.22392823e-02 2.74101913e-01 5.22161663e-01 4.69294101e-01
      7.21675083e-02 1.60997063e-01 2.23711520e-01 3.85985464e-01
      3.85985464e-01 3.85985464e-01 3.85985464e-01 3.85985464e-01
      1.59326568e-01 3.85985464e-01 1.63718119e-01 1.14264749e-02
      1.71643764e-01 4.40643191e-01 1.41090244e-01 1.91113781e-02
      2.19126674e-03 5.92864394e-01 5.92864394e-01 2.16953382e-01
      4.39335704e-01 4.74299043e-01 4.74299043e-01 4.74299043e-01
      2.66808420e-01 8.08977857e-02 7.23758936e-02 1.56988829e-01
      1.40545160e-01 3.98549348e-01 7.78079778e-02 7.02563897e-02
      3.94438803e-01 3.98549348e-01 3.98549348e-01 2.67605036e-01
      3.49953711e-01 3.98549348e-01 4.34447527e-01 4.34447527e-01
      2.58335441e-01 8.25840011e-02 3.71781141e-01 4.34447527e-01
      1.65737405e-01 3.78716439e-02 4.34447527e-01 7.39554837e-02
      2.04502031e-01 1.27429873e-01 7.44908210e-03 1.74615026e-01
      5.47860563e-01 5.47860563e-01 5.47860563e-01 7.30893051e-04
      1.75259653e-02 3.84285040e-02 4.66200054e-01 6.22134566e-01
      6.22134566e-01 3.33651016e-03 6.07114169e-04 5.36372233e-03
      2.27789450e-02 9.24847871e-02 1.04084553e-03 6.27955282e-03
      6.93410933e-01 6.93410933e-01 6.27363427e-03 1.40923541e-03
      7.45923724e-03 1.50829360e-01 1.16287433e-01 1.00395093e-02 0.
      5.13961494e-01 5.96146822e-01 5.96146822e-01 2.96708941e-02 0.
      6.78600818e-02 8.57369881e-03 2.78541585e-03 0. 6.73835864e-04
      5.74078202e-01 5.74078202e-01 5.74078202e-01 7.40825981e-02
      5.41128509e-04</_>
    <_>
      4.93409872e-01 4.93409872e-01 2.91510932e-02 0. 0. 0.
      4.25939977e-01 2.87119240e-01 4.93409872e-01 4.95794624e-01
      1.08623326e-01 0. 0. 0. 0. 4.95794624e-01 4.95794624e-01
      4.95794624e-01 6.93516850e-01 1.76461264e-01 0. 0. 0. 0. 0.
      2.64994497e-03 6.93516850e-01 5.91429114e-01 1.07581848e-02 0. 0.
      0. 0. 0. 5.42588115e-01 5.91429114e-01 4.01878446e-01
      4.01878446e-01 4.01878446e-01 2.90405750e-01 2.85971630e-03
      8.52818489e-02 4.01878446e-01 3.11186463e-01 4.01878446e-01
      4.53297853e-01 1.10447355e-01 1.82735287e-02 4.19771411e-02
      4.53297853e-01 4.53297853e-01 3.42767686e-01 2.04381734e-01
      4.53297853e-01 4.72192347e-01 3.01232994e-01 3.58349271e-02
      1.06672779e-01 4.72192347e-01 4.72192347e-01 5.04522293e-04
      4.06389963e-03 4.72192347e-01 3.81514639e-01 3.81514639e-01
      2.44573295e-01 1.83184296e-01 3.81514639e-01 1.71742395e-01
      3.81514639e-01 3.81514639e-01 3.81514639e-01 4.60940748e-02
      1.51183233e-01 6.20994031e-01 6.20994031e-01 1.31782994e-01
      1.68445706e-01 2.72201210e-01 1.74734592e-01 2.17221752e-01
      3.92228663e-01 7.34440703e-03 5.60762994e-02 3.92228663e-01
      3.92228663e-01 3.92228663e-01 3.31812412e-01 3.36997032e-01
      3.92228663e-01 4.48609263e-01 4.48609263e-01 1.67846698e-02
      7.84967095e-02 4.48609263e-01 4.48609263e-01 4.06765239e-03
      1.28004150e-02 4.28828597e-01 3.33917141e-01 4.98294443e-01
      1.22601315e-01 4.42830063e-02 3.17207605e-01 4.98294443e-01
      4.98294443e-01 1.40887469e-01 3.41826677e-02 0. 2.41009947e-02
      3.35128456e-01 6.61661088e-01 6.61661088e-01 0. 0. 4.69530448e-02
      5.20322025e-02 1.29577816e-01 2.69911194e-04 1.09336795e-02
      6.53897524e-01 6.53897524e-01 9.48709436e-03 0. 4.61392067e-02
      3.45223069e-01 3.54246140e-01 4.21123542e-02 0. 2.76779205e-01
      6.21113002e-01 6.21113002e-01 3.64206528e-04 1.15018338e-03
      1.35513902e-01 6.48228750e-02 3.04243546e-02 0. 0. 7.00142264e-01
      7.00142264e-01 8.61599147e-02 4.41731233e-03 6.45848736e-03</_>
    <_>
      6.90307915e-01 6.90307915e-01 1.34471580e-01 0. 6.28815405e-03
      1.45567849e-01 2.02955958e-02 0. 1.82940774e-02 4.44747120e-01
      4.44747120e-01 2.38442654e-03 7.89651573e-02 4.44747120e-01
      4.44747120e-01 1.77279990e-02 1.40965532e-03 4.44747120e-01
      3.25495601e-01 6.77294505e-04 1.08775999e-02 4.76964772e-01
      4.48341578e-01 7.53234997e-02 0. 4.76964772e-01 4.76964772e-01
      5.63396253e-02 0. 6.06563967e-03 2.12058127e-01 1.43110044e-02 0.
      3.41563001e-02 6.86874092e-01 6.86874092e-01 2.35005096e-01
      4.84692812e-01 4.84692812e-01 0. 3.39834974e-03 4.84692812e-01
      4.84692812e-01 1.39442300e-02 4.12877882e-03 4.07765925e-01
      2.13311464e-01 1.78596452e-02 1.22725263e-01 4.47575003e-01
      4.92540509e-01 4.92540509e-01 6.15329891e-02 2.80398816e-01
      1.60747081e-01 8.06867778e-02 3.05106640e-01 6.16318285e-01
      5.16847849e-01 1.36104777e-01 6.82623545e-03 2.37561882e-01
      3.82648408e-01 3.08931917e-02 1.29461184e-01 4.77732271e-01
      4.77732271e-01 1.60890203e-02 0. 3.38595837e-01 4.77732271e-01
      4.21809584e-01 5.97137176e-02 4.74573463e-01 4.74573463e-01
      2.71363884e-01 9.80495382e-03 1.11324899e-01 4.74573463e-01
      4.74573463e-01 6.84592053e-02 3.50779027e-01 3.50779027e-01
      3.50779027e-01 3.50779027e-01 3.50779027e-01 1.10127568e-01
      3.50779027e-01 3.50779027e-01 3.50779027e-01 5.14594018e-01
      2.52273202e-01 1.23940736e-01 3.16524923e-01 5.14594018e-01
      5.97586036e-02 7.12796440e-03 1.32765964e-01 5.14594018e-01
      3.76256555e-01 3.76256555e-01 3.76256555e-01 1.25446871e-01
      3.51623893e-01 3.76256555e-01 3.76256555e-01 3.76256555e-01
      8.63173679e-02 3.45538999e-03 5.77769466e-02 4.61617708e-01
      4.61617708e-01 4.14806157e-01 2.50471085e-01 3.70505691e-01
      4.35768723e-01 6.23577461e-02 3.50577906e-02 4.03359309e-02
      1.44083336e-01 4.42494392e-01 4.42494392e-01 4.07970220e-01
      4.42494392e-01 4.42494392e-01 1.49395958e-01 1.60343379e-01
      5.11704432e-03 5.41248446e-05 6.67254090e-01 6.67254090e-01
      1.97819188e-01 5.10972645e-03 7.09097600e-03 1.94775969e-01
      1.00232489e-01 2.30336320e-02 0. 7.20423907e-02 6.62192762e-01
      6.62192762e-01 3.14020038e-01 4.02072892e-02 1.99551135e-02</_>
    <_>
      5.87272406e-01 5.87272406e-01 1.77147150e-01 0. 0. 0. 0. 0.
      5.22471964e-01 7.02470720e-01 2.54286993e-02 0. 0. 7.07919672e-02
      1.99818909e-02 0. 4.32689470e-04 7.02470720e-01 6.92579806e-01 0.
      0. 2.56390031e-02 1.67067021e-01 2.46056076e-02 0. 6.76633418e-02
      6.92579806e-01 2.38785356e-01 0. 0. 1.17873680e-02 3.24149840e-02
      7.00998912e-03 9.58365947e-02 6.80355072e-01 6.80355072e-01
      5.14996588e-01 5.14996588e-01 5.14996588e-01 4.29016709e-01 0.
      6.79731276e-03 8.50938931e-02 1.41644273e-02 8.74590501e-02
      4.43176419e-01 8.26206654e-02 1.49657562e-01 8.44523776e-03
      4.43176419e-01 4.43176419e-01 4.43176419e-01 9.23756808e-02
      4.14877981e-01 4.20402288e-01 4.20402288e-01 2.81120420e-01
      3.53842974e-01 4.20402288e-01 2.75897533e-01 6.76591918e-02
      6.25878498e-02 4.20402288e-01 7.44874924e-02 3.03109378e-01
      3.06579351e-01 1.65943027e-01 1.49988562e-01 2.33718723e-01
      4.82737273e-01 4.82737273e-01 4.82737273e-01 0. 2.53256589e-01
      6.64140344e-01 6.64140344e-01 6.18072338e-02 1.91729702e-02
      1.93037152e-01 7.41737261e-02 1.06396480e-02 3.75017285e-01
      1.17028952e-01 2.78768420e-01 3.75017285e-01 3.75017285e-01
      2.47018471e-01 3.75017285e-01 3.75017285e-01 3.75017285e-01
      4.87847090e-01 4.87847090e-01 9.27076191e-02 4.51048054e-02
      4.87847090e-01 4.87847090e-01 1.15483664e-01 5.02757207e-02
      1.29054293e-01 1.22510068e-01 2.80612707e-01 1.02033049e-01
      1.41211087e-02 7.47354925e-02 6.54475510e-01 6.54475510e-01
      1.63335815e-01 1.27743520e-02 0. 2.40929481e-02 5.86101174e-01
      5.86101174e-01 5.53130925e-01 0. 1.42519157e-02 1.77119467e-02
      8.20520334e-03 1.50663465e-01 3.43570882e-03 5.99021018e-02
      6.03532016e-01 6.03532016e-01 4.60853964e-01 1.56789385e-02
      5.14554977e-02 1.54572666e-01 1.90463006e-01 2.90033910e-02 0.
      1.62416473e-01 6.81392133e-01 6.81392133e-01 9.92905442e-03
      1.63051987e-03 3.17736305e-02 6.77484833e-03 5.70718851e-03 0. 0.
      5.91114223e-01 7.67171681e-01 2.32278109e-01 1.85202938e-02 0.</_>
    <_>
      5.48051119e-01 5.26705861e-01 3.08760941e-01 4.43831878e-03
      8.81722569e-02 7.84028322e-02 0. 8.43419880e-02 5.48051119e-01
      5.91532588e-01 5.66228330e-02 1.08278895e-04 2.26607575e-04
      4.80114400e-01 2.46043563e-01 0. 4.30625537e-03 5.91532588e-01
      5.44193566e-01 0. 0. 2.08133370e-01 5.44193566e-01 8.67859274e-02
      6.67811837e-03 2.35010251e-01 5.44193566e-01 2.73822010e-01 0. 0.
      2.05826655e-01 1.14708252e-01 0. 1.50167182e-01 6.48257911e-01
      6.48257911e-01 3.75128120e-01 3.28301877e-01 3.75128120e-01
      6.53186142e-02 3.06875199e-01 3.75128120e-01 3.75128120e-01
      3.34536672e-01 3.39458555e-01 5.65735161e-01 2.43370309e-02
      4.76845511e-04 9.97948810e-04 5.65735161e-01 5.65735161e-01
      1.00779794e-01 7.76357204e-02 1.31925538e-01 2.64397323e-01
      1.39439300e-01 5.01007378e-01 5.01007378e-01 5.01007378e-01
      2.22733423e-01 8.34249426e-03 1.00603618e-01 3.04665178e-01
      4.73989472e-02 1.99748248e-01 4.56761569e-01 4.56761569e-01
      1.11673020e-01 2.69671716e-02 4.56761569e-01 4.56761569e-01
      3.24913710e-01 1.19186332e-02 6.49389997e-02 5.13734221e-01
      5.13734221e-01 1.95553564e-02 1.03713438e-01 4.03545707e-01
      5.13734221e-01 1.57332957e-01 4.12624985e-01 3.98013089e-03
      7.20434114e-02 1.12239376e-01 1.73163965e-01 9.82865095e-02
      4.60747987e-01 5.26660562e-01 5.26660562e-01 5.45679271e-01
      5.45679271e-01 5.45679271e-01 3.42702754e-02 4.98628430e-02
      2.42270678e-01 7.86087140e-02 3.30530573e-04 1.80880740e-01
      9.37588587e-02 4.92016792e-01 4.92016792e-01 1.61777046e-02
      1.61283941e-03 4.92016792e-01 4.92016792e-01 1.33074149e-01 0.
      2.01609638e-02 4.27371189e-02 5.68726122e-01 5.68726122e-01
      2.37353638e-01 5.88197727e-04 1.55734792e-02 4.80463386e-01
      2.40342185e-01 4.43482250e-01 3.84384487e-03 6.74837455e-02
      4.43482250e-01 4.43482250e-01 8.68781283e-02 8.41198303e-03
      4.43482250e-01 4.43482250e-01 4.63749498e-01 4.63749498e-01
      3.50885391e-02 2.45251898e-02 4.63749498e-01 4.63749498e-01
      1.32050648e-01 5.32240188e-03 3.40315998e-01 1.43128753e-01
      3.70891780e-01 3.16931158e-02 0. 1.91539139e-01 6.30068362e-01
      6.30068362e-01 6.32360727e-02 0.</_>
    <_>
      5.47318637e-01 5.88480115e-01 5.78399539e-01 0. 0. 9.76164863e-02
      6.46709576e-02 0. 0. 4.22002226e-01 4.22002226e-01 9.12436470e-02
      1.70504749e-01 4.22002226e-01 4.22002226e-01 2.60220647e-01
      1.55862439e-02 4.22002226e-01 2.55622596e-01 1.67741179e-02
      1.01028025e-01 4.82660621e-01 4.29924875e-01 1.70967206e-01
      7.99948946e-02 4.82660621e-01 4.82660621e-01 5.77465026e-03 0.
      1.04236923e-01 2.72732526e-01 1.39393453e-02 0. 3.19786608e-01
      6.34792387e-01 6.34792387e-01 7.28529170e-02 5.38655043e-01
      5.38655043e-01 2.26771176e-01 6.36632508e-03 5.38655043e-01
      2.49926031e-01 5.45621403e-02 4.42687608e-02 9.51787308e-02
      5.11071146e-01 2.69038379e-01 1.61528155e-01 1.47451326e-01
      5.11071146e-01 5.11071146e-01 2.75674164e-01 7.77470022e-02 0.
      1.09617010e-01 5.35596669e-01 5.35596669e-01 2.49322951e-01
      1.11328125e-01 1.19968966e-01 5.35596669e-01 1.81921840e-01 0.
      6.29128516e-02 4.91221905e-01 4.91221905e-01 3.06165009e-03 0.
      4.91221905e-01 4.91221905e-01 1.61029711e-01 5.59638701e-02
      5.26506424e-01 5.26506424e-01 2.19375193e-01 1.86208810e-03
      2.32237548e-01 4.57867891e-01 3.31689805e-01 1.24368154e-01
      1.53794721e-01 3.77074867e-01 2.33194560e-01 7.62740448e-02
      2.20946851e-03 4.38627958e-01 4.38627958e-01 4.38627958e-01
      4.38627958e-01 5.26721001e-01 5.26721001e-01 5.26721001e-01
      8.84750262e-02 0. 2.67433465e-01 2.48028532e-01 4.95946258e-02
      1.38233364e-01 5.23304082e-02 4.94238347e-01 3.23926687e-01
      4.97583337e-02 0. 4.94238347e-01 4.94238347e-01 3.89973789e-01
      5.18007716e-03 0. 2.22634494e-01 6.16504610e-01 6.16504610e-01
      1.75159082e-01 1.82144996e-02 8.33883658e-02 3.59574407e-01
      1.29857004e-01 4.35160249e-01 5.24977483e-02 1.77617967e-01
      4.35160249e-01 4.35160249e-01 9.99316126e-02 6.73828647e-02
      4.35160249e-01 4.35160249e-01 4.49445397e-01 4.49445397e-01
      2.07859036e-02 9.50013101e-02 4.49445397e-01 4.49445397e-01
      2.49275506e-01 2.23745704e-02 3.39720041e-01 1.36969760e-01
      3.86668324e-01 1.38332322e-02 0. 4.32141237e-02 6.41045153e-01
      6.41045153e-01 3.72835957e-02 0.</_>
    <_>
      6.23522997e-01 6.23522997e-01 4.39935565e-01 0. 0. 1.13225147e-01
      9.02245417e-02 6.98566297e-03 4.07461189e-02 5.37004292e-01
      5.37004292e-01 1.43289370e-02 1.04011275e-01 2.33032912e-01
      5.37004292e-01 9.28291231e-02 2.26829364e-03 2.35724121e-01
      4.18308735e-01 7.59231225e-02 2.40137383e-01 4.18308735e-01
      3.79198402e-01 2.78957307e-01 1.04181178e-01 4.18308735e-01
      4.18308735e-01 1.65137183e-02 0. 1.39110282e-01 1.66369081e-01 0.
      0. 5.61867714e-01 5.61867714e-01 5.61867714e-01 2.20728338e-01
      5.11612475e-01 5.11612475e-01 5.11612475e-01 1.80707499e-02
      8.63768011e-02 2.80879319e-01 2.72482455e-01 0. 2.14824706e-01
      4.22046155e-01 2.82031685e-01 2.66202241e-01 1.05899766e-01
      4.50778782e-01 4.50778782e-01 4.50778782e-01 0. 4.80384659e-03
      4.33271229e-01 4.33271229e-01 4.33271229e-01 1.10351913e-01
      2.04723373e-01 4.33271229e-01 4.33271229e-01 5.42218275e-02 0.
      2.32762888e-01 4.28746045e-01 9.40865353e-02 0. 2.99199931e-02
      6.09798551e-01 6.09798551e-01 4.95345667e-02 0. 1.82447135e-01
      6.86555147e-01 6.86555147e-01 1.56224836e-02 2.45695561e-03
      5.59630059e-02 1.17308699e-01 0. 7.97401369e-02 1.98213905e-01
      4.86379474e-01 4.86379474e-01 1.23231513e-02 4.02166648e-03
      4.86379474e-01 4.86379474e-01 5.53787611e-02 1.47797063e-01
      4.76549625e-01 4.76549625e-01 3.45805567e-03 0. 4.76549625e-01
      4.76549625e-01 2.54387826e-01 1.65210851e-02 0. 3.23806137e-01
      1.35778010e-01 6.87548600e-04 0. 5.82334399e-01 5.82334399e-01
      4.38944250e-01 0. 0. 2.97533035e-01 6.72591865e-01 6.72591865e-01
      0. 0. 0. 0. 0. 3.75314623e-01 1.84724346e-01 4.14788693e-01
      4.14788693e-01 4.14788693e-01 2.15792999e-01 1.51099831e-01
      4.14788693e-01 2.51547158e-01 4.56590891e-01 4.56590891e-01
      8.11812133e-02 1.02672920e-01 3.37520123e-01 4.56590891e-01
      4.56590891e-01 1.38342097e-01 1.06526561e-01 0. 7.29504973e-02
      3.83289903e-02 3.16038146e-03 0. 6.76579356e-01 6.76579356e-01
      2.66318679e-01 0.</_>
    <_>
      6.87503517e-01 6.87503517e-01 2.11710230e-01 0. 0. 1.10403690e-02
      2.20786855e-02 0. 4.88255285e-02 5.48223078e-01 5.48223078e-01
      5.50166657e-03 0. 1.83409438e-01 5.48223078e-01 1.15517847e-01 0.
      2.14163527e-01 4.07650858e-01 4.90364730e-02 1.50328100e-01
      4.07650858e-01 4.07650858e-01 3.72633338e-01 3.42476703e-02
      4.07650858e-01 4.07650858e-01 1.20690782e-02 1.44193619e-02
      2.02978775e-01 2.18673646e-01 8.59165564e-02 0. 1.82167068e-01
      6.57077432e-01 6.57077432e-01 3.43273163e-01 7.47546852e-01
      4.60158139e-01 1.62542500e-02 2.38316692e-02 2.12975055e-01
      2.40034178e-01 1.77618042e-02 2.83834944e-03 2.46943429e-01
      4.65083212e-01 6.36412725e-02 6.62455112e-02 1.38035178e-01
      4.65083212e-01 4.65083212e-01 4.65083212e-01 2.04136163e-01
      8.69103428e-03 3.95287424e-01 3.95287424e-01 3.95287424e-01
      3.95287424e-01 3.95287424e-01 3.12651038e-01 3.33448529e-01
      7.60006085e-02 0. 3.92460585e-01 5.15840232e-01 1.05591990e-01
      2.19702739e-02 8.60331729e-02 5.15840232e-01 5.15840232e-01
      1.53347611e-01 3.36754434e-02 4.69254553e-01 4.69254553e-01
      4.69254553e-01 1.15322627e-01 1.82006299e-01 4.69254553e-01
      2.58754581e-01 0. 2.96868328e-02 3.70169804e-02 4.54565138e-01
      4.54565138e-01 5.51754087e-02 2.08304226e-01 4.54565138e-01
      4.54565138e-01 3.46778065e-01 2.47948870e-01 4.27428007e-01
      4.27428007e-01 6.56248257e-02 0. 1.28341407e-01 4.27428007e-01
      4.27428007e-01 4.27428007e-01 1.31494775e-02 5.27378321e-01
      2.26503283e-01 0. 0. 5.62428176e-01 5.62428176e-01 1.79243371e-01
      4.01123631e-04 0. 2.40556002e-02 4.87288922e-01 4.87288922e-01
      4.87288922e-01 3.17718208e-01 4.08249557e-01 1.20790541e-01 0.
      2.89714225e-02 4.41379438e-04 5.23311079e-01 5.23311079e-01
      4.23380882e-01 2.29425609e-01 3.26208949e-01 2.47260675e-01
      2.16304675e-01 3.01661432e-01 2.84092247e-01 1.48327842e-01
      3.98521423e-01 3.98521423e-01 3.98521423e-01 3.98521423e-01
      9.06255022e-02 3.98521423e-01 3.72212045e-02 1.06427334e-01
      1.25024328e-02 0. 1.76427260e-01 6.84826672e-01 6.84826672e-01
      1.05727285e-01 3.87602556e-03</_>
    <_>
      5.74010551e-01 5.74010551e-01 7.61844590e-02 0. 0. 0. 0. 0.
      5.74010551e-01 5.75672626e-01 5.75672626e-01 2.02385781e-04
      4.35204827e-04 4.63162595e-03 5.73916128e-03 0. 0. 5.75672626e-01
      6.56330049e-01 1.50194779e-01 5.17434441e-04 2.24039927e-02
      1.02756284e-01 2.19395459e-02 2.30922800e-04 3.12742889e-01
      6.56330049e-01 4.81994927e-01 3.97838827e-04 9.06338391e-05
      5.25450706e-03 6.84200367e-03 1.43339101e-04 4.61919963e-01
      5.23929238e-01 5.23929238e-01 5.25193036e-01 5.25193036e-01
      5.25193036e-01 1.20267563e-01 3.00038885e-03 6.13356882e-04
      4.24492871e-03 7.33605307e-03 3.90802294e-01 4.60386336e-01
      3.60539436e-01 1.21027296e-02 7.98237137e-03 9.16141346e-02
      4.60386336e-01 4.60386336e-01 9.47998092e-02 4.60386336e-01
      3.68901312e-01 3.71068299e-01 3.71068299e-01 3.71068299e-01
      3.71068299e-01 3.71068299e-01 3.45659137e-01 9.25492942e-02
      2.09046796e-01 5.60210757e-02 1.06549524e-01 2.90740073e-01
      1.34190425e-01 5.25446832e-02 2.45905817e-02 6.43978119e-01
      6.43978119e-01 2.09191769e-01 1.95104198e-03 8.57345462e-02
      7.01153457e-01 7.01153457e-01 4.88416664e-02 2.61282851e-03
      2.73855450e-03 3.70631414e-03 8.26370262e-04 4.00622934e-01
      1.34847119e-01 1.34656891e-01 4.00622934e-01 1.31572753e-01
      3.74000579e-01 4.00622934e-01 4.00622934e-01 4.00622934e-01
      4.22880560e-01 4.22880560e-01 2.75112569e-01 1.32562011e-01
      1.29372820e-01 4.22880560e-01 4.22880560e-01 2.10178539e-01
      3.55375797e-01 8.94243568e-02 1.39162049e-01 1.41922757e-01
      1.68931745e-02 1.17904348e-02 6.66245162e-01 6.66245162e-01
      2.40103200e-01 2.12776521e-03 3.53800824e-05 2.90149320e-02
      5.67800879e-01 7.26920307e-01 3.75620872e-01 2.81125453e-04
      2.18585657e-04 2.74663071e-05 0. 3.66259068e-02 6.33612415e-03
      8.63644481e-02 6.98265433e-01 6.98265433e-01 7.23475590e-02
      3.65674496e-02 2.32458115e-02 4.39107753e-02 8.84360224e-02
      1.98282991e-02 8.32026917e-03 3.70187938e-01 5.95520556e-01
      5.95520556e-01 3.67851138e-01 1.94405336e-02 6.12338930e-02
      3.65028810e-03 1.82359328e-03 2.10099248e-03 5.79886744e-03
      4.78349715e-01 6.14449501e-01 6.14449501e-01 9.94757712e-02
      2.73389742e-04</_>
    <_>
      6.99545443e-01 6.99545443e-01 8.79548863e-02 0. 0. 0. 0. 0.
      8.09512064e-02 5.64805925e-01 5.64805925e-01 6.55364711e-03 0.
      1.69599637e-01 9.23886895e-02 0. 0. 5.64805925e-01 6.19064331e-01
      2.79928427e-02 3.31503659e-04 1.02501310e-01 4.28545564e-01
      9.60229337e-02 0. 1.52235791e-01 6.19064331e-01 2.11999655e-01 0.
      2.38837107e-04 8.26932192e-02 8.10429379e-02 0. 5.93239442e-02
      6.82392299e-01 6.82392299e-01 6.28472567e-01 6.28472567e-01
      4.34560537e-01 7.25678122e-03 1.79784012e-03 7.52487103e-04
      1.14514560e-01 2.81084403e-02 3.10931224e-02 3.92351538e-01
      3.92351538e-01 6.69865776e-03 2.46147402e-02 3.92351538e-01
      3.92351538e-01 3.92351538e-01 3.92351538e-01 2.67939180e-01
      2.20456854e-01 7.25114718e-02 2.04535678e-01 4.75173771e-01
